<?xml version="1.0"?>
<MethodSetup Method="MLP::MLPBNN">
  <GeneralInfo>
    <Info name="TMVA Release" value="4.2.1 [262657]"/>
    <Info name="ROOT Release" value="6.08/06 [395270]"/>
    <Info name="Creator" value="sbilokin"/>
    <Info name="Date" value="Mon Feb 12 11:00:37 2018"/>
    <Info name="Host" value="Linux ubuntu1604 4.4.0-66-generic #87-Ubuntu SMP Fri Mar 3 15:29:05 UTC 2017 x86_64 x86_64 x86_64 GNU/Linux"/>
    <Info name="Dir" value="/home/sbilokin/BelleII/test"/>
    <Info name="Training events" value="2000"/>
    <Info name="TrainingTime" value="1.51099801e+01"/>
    <Info name="AnalysisType" value="Classification"/>
  </GeneralInfo>
  <Options>
    <Option name="NCycles" modified="Yes">600</Option>
    <Option name="HiddenLayers" modified="Yes">N+5</Option>
    <Option name="NeuronType" modified="Yes">tanh</Option>
    <Option name="RandomSeed" modified="No">1</Option>
    <Option name="EstimatorType" modified="No">CE</Option>
    <Option name="NeuronInputType" modified="No">sum</Option>
    <Option name="V" modified="Yes">False</Option>
    <Option name="VerbosityLevel" modified="No">Default</Option>
    <Option name="VarTransform" modified="Yes">N</Option>
    <Option name="H" modified="Yes">True</Option>
    <Option name="CreateMVAPdfs" modified="No">False</Option>
    <Option name="IgnoreNegWeightsInTraining" modified="No">False</Option>
    <Option name="TrainingMethod" modified="Yes">BFGS</Option>
    <Option name="LearningRate" modified="No">2.000000e-02</Option>
    <Option name="DecayRate" modified="No">1.000000e-02</Option>
    <Option name="TestRate" modified="Yes">5</Option>
    <Option name="EpochMonitoring" modified="No">False</Option>
    <Option name="Sampling" modified="No">1.000000e+00</Option>
    <Option name="SamplingEpoch" modified="No">1.000000e+00</Option>
    <Option name="SamplingImportance" modified="No">1.000000e+00</Option>
    <Option name="SamplingTraining" modified="No">True</Option>
    <Option name="SamplingTesting" modified="No">False</Option>
    <Option name="ResetStep" modified="No">50</Option>
    <Option name="Tau" modified="No">3.000000e+00</Option>
    <Option name="BPMode" modified="No">sequential</Option>
    <Option name="BatchSize" modified="No">-1</Option>
    <Option name="ConvergenceImprove" modified="No">1.000000e-30</Option>
    <Option name="ConvergenceTests" modified="No">-1</Option>
    <Option name="UseRegulator" modified="Yes">True</Option>
    <Option name="UpdateLimit" modified="No">10000</Option>
    <Option name="CalculateErrors" modified="No">False</Option>
    <Option name="WeightRange" modified="No">1.000000e+00</Option>
  </Options>
  <Variables NVar="4">
    <Variable VarIndex="0" Expression="var1+var2" Label="myvar1" Title="myvar1" Unit="" Internal="myvar1" Type="F" Min="-8.14423561e+00" Max="7.26972866e+00"/>
    <Variable VarIndex="1" Expression="var1-var2" Label="myvar2" Title="Expression 2" Unit="" Internal="myvar2" Type="F" Min="-3.96643972e+00" Max="4.02589369e+00"/>
    <Variable VarIndex="2" Expression="var3" Label="var3" Title="Variable 3" Unit="units" Internal="var3" Type="F" Min="-5.03730011e+00" Max="4.27845287e+00"/>
    <Variable VarIndex="3" Expression="var4" Label="var4" Title="Variable 4" Unit="units" Internal="var4" Type="F" Min="-5.95050764e+00" Max="4.64035463e+00"/>
  </Variables>
  <Spectators NSpec="2">
    <Spectator SpecIndex="0" Expression="var1*2" Label="spec1" Title="Spectator 1" Unit="units" Internal="spec1" Type="F" Min="-9.91655540e+00" Max="8.67800140e+00"/>
    <Spectator SpecIndex="1" Expression="var1*3" Label="spec2" Title="Spectator 2" Unit="units" Internal="spec2" Type="F" Min="-1.48748331e+01" Max="1.30170021e+01"/>
  </Spectators>
  <Classes NClass="2">
    <Class Name="Signal" Index="0"/>
    <Class Name="Background" Index="1"/>
  </Classes>
  <Transformations NTransformations="1">
    <Transform Name="Normalize">
      <Selection>
        <Input NInputs="4">
          <Input Type="Variable" Label="myvar1" Expression="var1+var2"/>
          <Input Type="Variable" Label="myvar2" Expression="var1-var2"/>
          <Input Type="Variable" Label="var3" Expression="var3"/>
          <Input Type="Variable" Label="var4" Expression="var4"/>
        </Input>
        <Output NOutputs="4">
          <Output Type="Variable" Label="myvar1" Expression="var1+var2"/>
          <Output Type="Variable" Label="myvar2" Expression="var1-var2"/>
          <Output Type="Variable" Label="var3" Expression="var3"/>
          <Output Type="Variable" Label="var4" Expression="var4"/>
        </Output>
      </Selection>
      <Class ClassIndex="0">
        <Ranges>
          <Range Index="0" Min="-4.9435877799987793e+00" Max="6.3994679450988770e+00"/>
          <Range Index="1" Min="-3.9664397239685059e+00" Max="3.1126663684844971e+00"/>
          <Range Index="2" Min="-2.7864599227905273e+00" Max="3.5011172294616699e+00"/>
          <Range Index="3" Min="-2.4271266460418701e+00" Max="4.5351858139038086e+00"/>
        </Ranges>
      </Class>
      <Class ClassIndex="1">
        <Ranges>
          <Range Index="0" Min="-8.1442356109619141e+00" Max="7.2697286605834961e+00"/>
          <Range Index="1" Min="-3.2550826072692871e+00" Max="4.0258936882019043e+00"/>
          <Range Index="2" Min="-5.0373001098632812e+00" Max="4.2784528732299805e+00"/>
          <Range Index="3" Min="-5.9505076408386230e+00" Max="4.6403546333312988e+00"/>
        </Ranges>
      </Class>
      <Class ClassIndex="2">
        <Ranges>
          <Range Index="0" Min="-8.1442356109619141e+00" Max="7.2697286605834961e+00"/>
          <Range Index="1" Min="-3.9664397239685059e+00" Max="4.0258936882019043e+00"/>
          <Range Index="2" Min="-5.0373001098632812e+00" Max="4.2784528732299805e+00"/>
          <Range Index="3" Min="-5.9505076408386230e+00" Max="4.6403546333312988e+00"/>
        </Ranges>
      </Class>
    </Transform>
  </Transformations>
  <MVAPdfs/>
  <Weights>
    <Layout NLayers="3">
      <Layer Index="0" NNeurons="5">
        <Neuron NSynapses="9">
          -1.4092205163923854e+00 1.2845822587444619e-01 6.1044232462542217e-02 -9.8334228692670878e-01 1.1626664759501280e+00 -2.2919892008820995e+00 -5.2727119990057070e-01 2.4287773116935610e-01 -4.7449799780080809e-01 
        </Neuron>
        <Neuron NSynapses="9">
          -7.3765409936523951e-01 -4.8130563235176747e-02 -3.4935136791967074e-02 4.3610146172868222e-02 -9.4358963024770648e-01 8.7865918693772790e-02 3.6045464028598533e-02 4.0995591785132561e-02 5.4300125289054514e-02 
        </Neuron>
        <Neuron NSynapses="9">
          -3.8303783541218155e-02 3.6466229566419796e-02 1.9021920721880720e-02 -2.3626236475369408e-01 -1.3915254294748794e-01 -3.2947606122883194e-01 -1.2393338515253791e-01 7.8126807192501369e-02 -1.1848856870279917e-01 
        </Neuron>
        <Neuron NSynapses="9">
          -8.6334322355237980e-01 -2.8394084707242545e-01 -1.5151782074076545e-01 1.1100710335505675e+00 2.7220960048583494e-02 1.1266612895321304e+00 7.7893405610701361e-01 -4.9061002433724721e-01 7.5680720899060105e-01 
        </Neuron>
        <Neuron NSynapses="9">
          3.2789963018331453e-02 1.4564415731989290e-03 8.8718533440840946e-04 -1.9688783585725556e-04 -1.6547484360078210e-01 8.5315441872016902e-03 -5.3380560027728287e-03 5.6122995993070418e-03 -6.1532063734303514e-03 
        </Neuron>
      </Layer>
      <Layer Index="1" NNeurons="10">
        <Neuron NSynapses="1">
          -4.9904787469327099e+00 
        </Neuron>
        <Neuron NSynapses="1">
          -1.7119382122623608e+00 
        </Neuron>
        <Neuron NSynapses="1">
          -8.6509934487265872e-01 
        </Neuron>
        <Neuron NSynapses="1">
          8.3508131575791023e+00 
        </Neuron>
        <Neuron NSynapses="1">
          8.2162311682290703e+00 
        </Neuron>
        <Neuron NSynapses="1">
          9.9267013641916826e+00 
        </Neuron>
        <Neuron NSynapses="1">
          5.0092652227654755e+00 
        </Neuron>
        <Neuron NSynapses="1">
          -3.6874644862386754e+00 
        </Neuron>
        <Neuron NSynapses="1">
          4.7867462021542018e+00 
        </Neuron>
        <Neuron NSynapses="1">
          -1.8937754900973334e+00 
        </Neuron>
      </Layer>
      <Layer Index="2" NNeurons="1">
        <Neuron NSynapses="0"/>
      </Layer>
    </Layout>
    <InverseHessian NElements="3025" NRows="55" NCols="55">
      <Row Index="0">
        1.0038580029104068e+01 -1.3692059627817571e+02 1.2797366602615426e+02 -6.3961831832899909e+00 3.7692989732039601e+00 1.3677198855933783e+00 1.1419018174519124e+02 8.4299858595795826e+01 -8.7229885171134171e+01 -1.7070892507550861e-01 1.2386472738812927e+01 4.2009942211329815e+01 -1.6136165067142276e+01 1.0755152972406856e+00 3.5838772340757745e+00 2.1653758336188784e+02 5.3818870813703057e+01 -1.4862724949748099e+02 1.9524859758127870e+00 -1.0833788102063551e+02 1.5903949870093092e+02 1.4169390983148960e+00 8.1082583835145305e-01 6.3414873290665330e-01 3.3991097580655122e+01 -4.5565191655179262e+00 -5.5654550126626695e+01 -1.0150858102002939e+01 -8.9112147788867475e+01 1.7699391282512224e+02 -7.1352339573543730e+00 -3.2166513048029626e+00 1.9288408445486202e-01 1.9830477410809874e+02 -5.1450221269670720e+01 -2.1326316073413935e+02 5.5210490357698061e-01 -1.1563942417214814e+02 3.4711161342826671e+01 -2.3554120881430189e+00 2.1190804098718416e-01 5.3697714392820128e-01 5.4305468141528273e+01 9.5996831386556170e-01 -5.5162462268419283e+01 3.6475124842296651e+00 3.7160509233465540e+01 3.0096123267813276e+01 -1.8254035989313785e+01 2.1614120849608174e+01 5.7397042561239875e+00 -4.4505016827233476e+01 5.1708519703032962e+01 -4.3605482285146323e+01 -1.5477206520388648e+02 
      </Row>
      <Row Index="1">
        -1.3692059775359763e+02 5.9854089904015709e+05 -2.1020730134392966e+05 -2.0408907323823263e+04 5.8233133827607801e+01 -5.5177999556773102e+01 2.9135229318918944e+04 -1.0156143638134400e+05 1.0771326879625986e+05 -2.2654717260440467e+01 -2.4834384932784480e+04 9.1227769545011251e+03 4.5248217143675265e+03 -2.2875466984619101e+02 -3.3871386084774485e+01 -6.3286013064635234e+04 -1.1439739250932536e+04 4.1791069529214481e+04 -5.4331351429793415e+01 6.0675123721808057e+04 3.3525168151377969e+04 -6.1382123016515916e+03 5.7470305971571861e+01 -6.8117515489777787e+01 2.2671129560275476e+04 -3.9311336188444984e+03 1.2612208158453916e+04 2.4378689666671607e+02 -2.5461243192208640e+05 -1.4507736421008664e+05 3.7172256959768551e+04 -1.5196137499172619e+02 2.6703569146886616e+02 -4.3295623155308676e+04 9.2497720242502910e+04 -7.1438838564803387e+04 -2.3502675385117207e+01 -8.7168078381761552e+03 2.1536326490572101e+03 -1.5163658732236723e+02 -1.6222890563025317e+01 -3.7269033887086472e+01 -5.3340403819762332e+03 1.9247870427511225e+02 3.7084560090054019e+03 2.4544961815066927e+01 -1.6612308903940517e+04 -1.1000632250508505e+04 6.9156390686533432e+03 -3.2696173157724261e+03 1.2502183301373962e+03 3.6430669434559532e+03 -1.3367251614892220e+04 4.5239600869873993e+03 -2.1347208376299222e+03 
      </Row>
      <Row Index="2">
        1.2797367338360868e+02 -2.1020729873881786e+05 8.5862536310410232e+05 -1.3096600158490546e+04 6.0673708029050538e+01 3.1621848254463112e+02 7.6844351785429666e+04 -5.6227459644440838e+04 -1.4979586627943261e+04 -2.9278774106966495e+01 -3.3514946634675143e+03 -5.5251871130309682e+03 3.2075652864831045e+02 -8.0711537322144068e+01 2.6485753525284963e+01 -1.0222767754049171e+04 4.2727675231703324e+02 7.6981512343627983e+03 2.5603081533686691e+01 3.7812644081134931e+04 1.2173525828448186e+04 -3.8266181845968640e+03 7.9836936256537001e+00 6.2572210248378042e+01 1.8615943963806516e+04 -1.6150299460359529e+03 2.8602041607065812e+03 -1.7282448557090015e+02 -1.3848377870493583e+05 -1.0739354504862397e+05 2.1739671489515858e+04 -4.7431820754245564e+01 -1.2725368080687727e+02 1.5834507778708758e+04 5.4428971626881386e+04 -8.8827020796787372e+04 -6.6664757325834501e-01 1.6611347387399066e+04 -7.6108278274322802e+03 -1.5008655090221561e+02 -4.2694969103413456e+00 -7.7967805252015410e+00 -5.4062053002495359e+03 1.3913503043451456e+03 6.3580179984240203e+03 3.2524638972465982e+02 -1.5257611325810660e+04 -1.0873511218968308e+04 3.7841247930405625e+03 -1.4297887107388087e+03 4.4737209212346170e+03 8.8200351639717119e+03 -1.4485549240628141e+04 9.3051660612896740e+03 2.4924410782901454e+04 
      </Row>
      <Row Index="3">
        -6.3961845575904590e+00 -2.0408906149526454e+04 -1.3096599578523488e+04 5.4455046542578593e+03 -4.9446508968900815e+01 8.7676989328897577e+01 -2.4748367184223847e+04 -1.7280507791629047e+04 -4.0044804970687765e+03 -2.8562895268509134e+00 -1.1214339613244374e+03 -4.0340676693885998e+03 -4.7355951760261070e+02 -3.4424093385334345e+01 -1.5006193310565873e+01 1.5682607840284618e+02 1.1065151592268626e+02 -5.2302145506805664e+02 8.6139532960469634e-01 -5.3449940790923774e+03 -2.9983708443913979e+03 9.4916200687728337e+02 -3.1391606048862261e+01 1.7860415817745796e+01 -5.0856854399705953e+03 -4.0667300033183360e+03 -1.4191855883006795e+03 9.7557386440961125e-02 9.8501208760229893e+03 4.8210165289479446e+03 -7.0598841757783175e+03 1.0509326751906855e+02 -5.4495762580359987e+01 1.7196127769213708e+04 1.6439365716493798e+04 9.8497009338192529e+03 4.7446687612176755e-02 -3.6745798270387672e+03 4.6542148942731183e+02 -1.2079212971980535e-01 -1.0149028142270293e+01 -1.0659491533521832e-01 1.9346393398475070e+03 -2.6340868823019122e+01 -2.0387860517626646e+03 1.7756248224468436e+01 3.2540423403552309e+03 1.5606934946871800e+03 1.8112200853251736e+04 -8.2568057916319231e+02 1.1640364515825008e+03 -6.6145026276942372e+03 6.0189438779984730e+03 -6.8054728754144717e+03 -6.0916045197990970e+03 
      </Row>
      <Row Index="4">
        3.7692989714926739e+00 5.8233120528787083e+01 6.0673689613237649e+01 -4.9446508889134286e+01 1.5433207883572541e+01 -5.9085109290512943e+00 1.7170589618324419e+02 2.7972138450460830e+02 1.3420589985492410e+02 -1.9798340713437201e+00 -9.6563543711375587e+01 -3.6288283641779009e+02 -1.8722533049137513e+00 -7.9367253917446590e-01 3.8748624069272113e+00 3.6361913911532514e+02 2.6404882535968881e+02 -2.8326436462355048e+02 1.4594971276651914e+00 -5.0198253045372198e+01 -1.7502492169827502e+01 -3.1299054218920492e+00 2.6914130670355307e+00 -4.6977685508087003e-01 6.2135312747386251e+01 8.0524961602621801e+01 -2.4574640716179090e+01 -7.5691559753718618e+00 9.7375002922339036e+00 3.7444646194017871e+01 3.8688106650804571e+01 -1.5076063866276820e+01 5.8975435937971650e+00 -1.2678236610501145e+01 -1.9900536943241099e+02 -1.7780242286989369e+02 3.8320969769285090e-01 -3.7316386783732213e+02 1.9558546589101684e+02 -6.6080543855688836e+00 2.9052835001662797e-01 5.4814656847209797e-01 1.4174713200351272e+02 7.3326139984179434e+01 -1.3680231589588163e+02 2.9687010810740091e+01 -2.4587875212404356e+01 -2.1616257557185808e+01 -4.6014697890332172e+00 -2.8095691072677937e+01 -5.8609391805940675e+01 1.3668292123374442e+01 1.0497557980569326e+01 1.6425463477910977e+01 -2.0995190724077480e+02 
      </Row>
      <Row Index="5">
        1.3677198631750009e+00 -5.5177987425598303e+01 3.1621849419566399e+02 8.7676979425407978e+01 -5.9085109325924581e+00 3.8222068383266361e+01 -9.3399739616455997e+02 -2.5453699847078755e+02 8.0029864252822222e+02 7.8701376327400041e-01 4.7878212336929687e+02 1.1770100637064779e+01 -1.3444005612343584e+01 2.2840572581749981e+00 1.1045460834628182e+00 -5.8143732262311971e+01 -2.3243222259030588e+02 7.4292079714356262e+01 6.2782375929903700e-01 2.1968936781302335e+02 2.6866380716530256e+02 -2.8438800493326845e+01 -1.6298377448066335e+00 6.0814697992590299e+00 1.0034546179219063e+01 -7.1601068005182341e+01 1.3260064771548895e+02 -1.0581383774791935e+00 -9.6598360924640161e+01 2.2249376990237138e+02 1.3599673909588540e+02 8.5590777281213573e+00 -2.4497988869637719e+01 -9.7846394600688086e+02 -3.8669435626796826e+02 4.3432172526795091e+02 7.3842025905929157e-02 6.4617932898333763e+01 -9.8605110963415257e+01 -2.6437283407192451e+00 1.7311800990930334e-01 5.5440363513352109e-01 4.2588035624233749e+00 -4.3321159460421548e+01 -6.3816399065702427e+00 -2.5673917396623125e+00 1.1809984255053607e+01 1.1384894687276290e+01 -4.2733461417553400e+01 4.8821880800119629e+01 4.7341483034401818e+02 -1.1118043021732888e+01 3.0355259657331100e+01 -9.8715708444629033e+00 -1.0576194561309069e+02 
      </Row>
      <Row Index="6">
        1.1419019380188365e+02 2.9135220529550890e+04 7.6844355242954349e+04 -2.4748366646621700e+04 1.7170589919786835e+02 -9.3399745028574819e+02 3.0299889597523282e+05 5.8594945780377471e+04 -1.9142860750934365e+05 9.1701237572324317e+01 5.5451616619902488e+03 2.8466896435679075e+04 2.9181292390287581e+03 8.1540658782693754e+01 1.7699637747195112e+01 -5.2026928331007948e+04 -1.8001872269224506e+04 4.2302852987149621e+04 -6.8812655431474354e+00 1.3762849489830176e+04 8.5402476206046413e+03 -1.5423566061120330e+03 1.4822168771267513e+02 -2.3926480381633576e+02 3.6083654558504801e+04 1.3240477251269478e+04 -1.4485372650116153e+04 1.0058703784964797e+02 -2.7322403965531325e+04 3.3025920378169278e+04 2.6295409909727365e+04 -5.0002856939458434e+02 6.3329213751479540e+02 -2.2139619290195723e+05 -6.1822446607364189e+04 1.1418116958326052e+05 -1.6485139581496277e+01 5.6063775052580295e+03 -1.1691710900362887e+03 9.2344337140575917e+01 5.4472767074726391e+01 -3.1513920793428532e+01 -4.0257937716433999e+03 7.3785735310618429e+02 4.4286543769732925e+03 -1.3642443460458016e+03 1.7753960412794695e+03 3.7028946167051190e+03 7.0360474424479791e+04 3.3666016869885098e+03 -1.2484050926594184e+04 2.1419885721763094e+04 -3.6717180950214452e+03 1.6749778041184625e+04 1.0235262936993997e+04 
      </Row>
      <Row Index="7">
        8.4299864779544805e+01 -1.0156144521272552e+05 -5.6227465197374833e+04 -1.7280507227880440e+04 2.7972136768694327e+02 -2.5453706012379030e+02 5.8594947519451947e+04 2.2910177330469419e+05 7.0668580220132601e+04 -4.9499182234241744e+01 3.2288211298360533e+04 2.7794765825814211e+04 6.9617788443325890e+02 5.0975387018807578e+02 1.6338309989930156e+02 6.1402703858779685e+04 9.6978447109099834e+03 -3.8895314871456882e+04 3.9185671500389219e+01 3.9107191696432237e+03 -2.0798152885922254e+03 -2.5900032952323995e+03 2.0743918786584581e+02 -3.6720230404896384e+01 1.7554585629540572e+04 4.0217989420881204e+04 1.1817933295759854e+04 -2.0336451366108702e+02 8.8651139455798460e+04 4.4606158845694445e+04 2.2924923576092540e+04 -6.4581700991803609e+02 2.3740115175901022e+02 -6.5103640520264977e+04 -2.2522943175611983e+05 -6.8867068282892200e+04 1.6354019929141941e+01 1.6876825966323289e+04 3.7980930437075731e+03 3.5594401823465154e+02 8.4800893114495125e+01 2.4110307203247785e+01 -6.8244678603188659e+03 -2.9750470418804775e+03 7.0419654609544850e+03 9.1366074610043688e+02 2.5056194352119113e+04 1.3653308895113989e+04 -5.3556896820009046e+04 1.0118078466724095e+04 -1.4480147080761010e+03 -5.7241347008631856e+04 3.1785648417320444e+04 -5.6249190361922738e+04 1.8624116111229552e+04 
      </Row>
      <Row Index="8">
        -8.7229888985330035e+01 1.0771327022865342e+05 -1.4979597133555988e+04 -4.0044814197331812e+03 1.3420589764868782e+02 8.0029863132326284e+02 -1.9142860276395769e+05 7.0668589942526683e+04 3.2187144976287824e+05 -1.5721708446199773e+02 6.4205477156041798e+03 -8.7800856823565437e+02 1.0027531057588206e+02 2.4314186991462338e+02 1.2552281901019862e+02 7.6942463064206997e+04 2.5742286086829008e+04 -5.9918038911130934e+04 1.9009818920669773e+01 2.4806321060158181e+04 6.2115253843867204e+03 -4.7054948782597767e+03 6.0572392288633949e+01 1.8337248107591370e+02 4.0605295988252328e+03 1.7513892336397170e+04 3.2984378975714964e+04 -1.9581003185958411e+02 5.8000289304653561e+03 -5.4325465958983666e+04 2.1254522604212485e+04 -1.5416554299043310e+02 -3.2950044063360826e+02 1.1953452750831246e+05 -5.5809495601121576e+04 -2.4283890827039565e+05 2.0635333123476812e+01 1.1157814400394042e+04 3.1958608632930845e+03 2.7289236608762117e+01 9.1951945754971920e+00 3.5379789984322215e+01 -7.9579806884104710e+03 -3.5598580421097026e+03 6.9224974510006832e+03 2.3391372780126912e+03 -1.6220081152604747e+04 -1.0469906186488017e+04 4.5587934746636718e+04 3.5953577463631736e+03 1.3607095440387046e+04 4.2941968866701820e+04 -2.8744658853379759e+04 3.8570795865743385e+04 1.5983470127081469e+04 
      </Row>
      <Row Index="9">
        -1.7070892178200836e-01 -2.2654715745809753e+01 -2.9278771044531915e+01 -2.8562882220292662e+00 -1.9798340714357323e+00 7.8701376042548843e-01 9.1701231383143693e+01 -4.9499194535179633e+01 -1.5721708700811948e+02 2.3662309983296268e+00 1.6867915712687179e+01 1.4173343488506456e+00 -3.3045350165838006e-01 2.6924134622124285e-01 -1.2700913812846801e+00 -4.7711825520301730e+01 -2.7581188384855672e+01 3.6811191634668525e+01 -3.5086846302339381e-01 -3.6311684293347426e+01 8.0913668849776457e+00 1.8239907517201983e+00 -2.8452320900276090e-01 4.6103947467708117e-01 -1.1974528991903853e+01 -8.3212638135601438e+00 -1.0982910352381776e+01 3.8687914655457960e+00 5.1214451093801534e+00 -1.5786173623859376e+01 -1.8083140485538802e+01 1.7956687106194913e+00 -2.9572385060113109e+00 1.0477107720345631e+02 7.2486653839784012e+01 -1.4839731807895554e+01 -1.4881354732201402e-01 6.1467700318785084e+01 -2.6854486831723193e+01 6.9550701843864804e-01 3.4157148186061317e-02 -7.2289720950259637e-02 -2.0161447543605004e+01 -2.6212765975019350e+00 2.3857859247360761e+01 -2.9230392035763380e+01 -9.1513615477090138e-01 -1.6183721069654347e+00 -2.8676834745943779e+01 4.7381468320501767e+00 -1.3162272072679593e+00 -6.4006549505661425e-02 -1.3828707583512601e+00 -7.4941878034131770e-01 5.4847695134520656e+01 
      </Row>
      <Row Index="10">
        1.2386466869746073e+01 -2.4834389205180698e+04 -3.3514945610417162e+03 -1.1214330498777808e+03 -9.6563565902000846e+01 4.7878214391778783e+02 5.5451621130734675e+03 3.2288204912166777e+04 6.4205387829586489e+03 1.6867918342250050e+01 2.9648180324257858e+05 -3.3088608166084456e+05 3.9592919135528828e+03 2.3431753680094607e+02 8.9462144635915237e+01 -1.1943139652434453e+05 -4.6614187588289278e+04 1.2933022161613355e+05 -1.6087574792642499e+01 -4.2472152251540665e+03 -8.9440482415198312e+03 -2.6399590133455604e+01 2.3757016192880155e+02 5.6536188845504967e+01 -1.2926888552035129e+04 1.7072159064539082e+04 2.2342109395868174e+04 8.7715718719082361e+01 6.9079329118971247e+04 3.5296753822658211e+04 2.2032096272412064e+03 -3.4553102777710910e+02 -2.1733254659918384e+02 2.4072375949701185e+04 -9.1910764683771005e+04 -6.1436656682052460e+04 -1.5626354325082502e+01 1.6975315405122295e+04 -1.0502936750826062e+04 4.2672593054134472e+02 9.0162325969538713e+01 -8.9308234284490879e+00 -7.7350997170125620e+03 -3.2586981113913998e+02 8.8591161897326929e+03 -1.9095724522246746e+02 -4.6653020374710841e+03 -5.5236677243847917e+03 -1.2685454316055402e+04 7.9648966196104375e+03 7.0128024124507456e+03 -1.1025979422217031e+04 1.8144711510591944e+04 -1.1046612008968244e+04 1.1872911623058979e+04 
      </Row>
      <Row Index="11">
        4.2009946415382728e+01 9.1227799640507146e+03 -5.5251888126821386e+03 -4.0340670590890422e+03 -3.6288284007011043e+02 1.1770069831771252e+01 2.8466891720220330e+04 2.7794759955396145e+04 -8.7800935111336003e+02 1.4173395494290162e+00 -3.3088607872713386e+05 7.6316870336433058e+05 -1.0484162582020360e+03 -3.3611021064946726e+02 -6.9740554088378417e+01 6.9722709415862264e+03 -3.7972359216824880e+04 -1.5489762529554471e+04 -9.8080291095110397e+00 7.1111648035375947e+03 1.6074774222424726e+03 -1.4130128847775595e+03 -2.0405559665446481e+02 -2.3401161080005636e+01 3.4174479015435281e+03 7.5601204099321312e+03 6.9113823735821688e+03 -2.3836173862642681e+01 6.8249333401308424e+04 2.1593994222391459e+04 6.9742338235013340e+03 6.0155641475389893e+02 2.3511152315890513e+01 1.0552909258410007e+04 -9.6335071394055369e+04 -6.5652348913117050e+04 -2.0406527826006823e+01 -7.5620495649073200e+03 -6.5099132253376356e+03 -1.9484281847694876e+02 -4.0679739950861425e+01 -4.3562883740603240e+01 2.9918589688111215e+03 1.7776665489395600e+02 -2.6356723139517153e+03 -1.5787195509976846e+02 -6.9155874871895358e+03 -8.0846103133702245e+03 -6.8280422409363091e+03 -5.2822552840452590e+03 -1.1662133939387259e+03 -6.8787904269109713e+03 1.1611951327094952e+04 -6.5179796832231432e+03 -1.8990474417381702e+04 
      </Row>
      <Row Index="12">
        -1.6136165223112926e+01 4.5248215724397260e+03 3.2075649729960730e+02 -4.7355949553639499e+02 -1.8722538856221718e+00 -1.3444005067729051e+01 2.9181292866747985e+03 6.9617775272404083e+02 1.0027503576476749e+02 -3.3045343923686232e-01 3.9592919876711248e+03 -1.0484163510382944e+03 4.9061786445798106e+02 2.3054621808358320e+01 -8.6661394678303623e+00 -6.7353627156306366e+03 -2.4153352423265064e+03 5.6472286790034750e+03 -4.5742009226797649e+00 1.1261008360001308e+03 -1.2448746016490072e+03 2.1047364642301670e+01 2.1608634589527345e+01 -9.7609567681307112e+00 -9.7394459843076538e+02 6.8216789861277607e+02 1.7465024386174218e+03 1.1381515399638037e+01 6.4414782524144084e+02 -1.4953859164268051e+03 5.5801052340844603e+02 -4.8982506857593357e+01 2.3919729549493070e+01 -3.0761807366615926e+02 -2.2626129196792726e+03 -2.7868640073395986e+03 -1.2470874469429987e+00 -1.3157800340012298e+03 8.4164502222593910e+01 5.4557203941935356e+01 7.3838214152263912e+00 -3.8466322950801191e+00 -3.3073280241538777e+02 -1.1440387009166722e+02 1.0135983926450541e+02 3.0276796370606462e+01 -6.5166598843718907e+02 -4.7095294354657779e+02 4.3940391862750403e+01 6.3898169719002635e+02 1.9739345441667808e+01 8.1573633247441012e+02 -6.3714702697452583e+02 8.5723250209167395e+02 -1.7944625974313203e+03 
      </Row>
      <Row Index="13">
        1.0755152942305202e+00 -2.2875468632704110e+02 -8.0711556110575501e+01 -3.4424094280224438e+01 -7.9367255963812511e-01 2.2840572631331444e+00 8.1540666350054948e+01 5.0975389227218363e+02 2.4314186533919411e+02 2.6924134996993132e-01 2.3431755155391809e+02 -3.3611019607658130e+02 2.3054622141563783e+01 8.0476304489278796e+00 1.9880751322775136e+00 6.7724881955361582e+01 -1.9546062314725305e+01 -8.8335477705665653e+01 5.3896669677567477e-01 -1.0649481859811802e+01 4.2281736773756762e+01 3.1828633389611429e+00 3.0684963394743114e+00 9.1169348022634988e-01 -1.7946061067823454e+01 5.5403813171853756e+01 5.9312731983589686e+01 -2.1519422592969231e+00 -2.3261396019855599e+01 3.3612763686913453e+01 2.6836183532182400e+01 -5.6453532087398273e+00 -2.0941989867142485e+00 -1.7714579446224093e+01 -2.3533595929482397e+02 -1.9918432750316100e+02 3.9564463839564468e-02 -1.6331912495880476e+02 4.0371169738343582e+01 5.1059356251409502e+00 1.5003861243459482e+00 1.3493103203824319e-01 2.1461659032811475e+01 -6.0711975026623612e+01 -5.7608107912039138e+01 4.7238716486611043e+00 -9.5911164203001462e+00 -1.6818032697751029e+01 2.5823677937657067e+01 1.6294331250253850e+02 3.5996328216685725e+01 -4.0978434542639263e+01 3.4767362373730037e+01 -3.7322599851355584e+01 -3.3025555643004168e+02 
      </Row>
      <Row Index="14">
        3.5838772320032319e+00 -3.3871390755865377e+01 2.6485744048270547e+01 -1.5006193968462791e+01 3.8748624057858905e+00 1.1045460880576177e+00 1.7699640006990876e+01 1.6338311179986752e+02 1.2552282079001525e+02 -1.2700913811795260e+00 8.9462152869896471e+01 -6.9740549082869165e+01 -8.6661392542903037e+00 1.9880751386607898e+00 4.0258183847477653e+00 1.7078856553446064e+02 3.4777105702363947e+01 -1.1911633088385616e+02 1.4471526870205524e+00 1.1582433463509417e+01 2.9306156227622040e+01 -5.1349906029619605e+00 1.2661922683937157e+00 1.0433468355470819e+00 4.8856980121483751e+01 1.6475230746388771e+01 -2.0276474647332059e+01 -7.0034884152403460e+00 -3.0214576868818924e+01 4.0625446096231961e+01 2.1501227097497214e+01 -3.6273493583624452e+00 -4.4002532083112555e-01 -1.1755139557488064e+01 -1.1005626967030233e+02 -1.1301041514260037e+02 2.9268409129750239e-01 -8.5265041865652279e+01 4.2597524689932612e+01 -2.0952957264005998e+00 4.3190236083201605e-01 4.9615305708735474e-01 5.0519399172502730e+01 -6.5492823224170564e+00 -5.3867693209260885e+01 2.3808185073521354e+01 6.5871458229007052e-01 -3.9007731770223408e-01 2.1528274125906592e+01 4.0771598029635754e+01 1.1577494648116769e+01 -8.3238544750143433e+00 1.4720271293763300e+01 -6.7177652241811474e+00 -1.1230908618609618e+02 
      </Row>
      <Row Index="15">
        2.1653758800953074e+02 -6.3286012515159338e+04 -1.0222771295433573e+04 1.5682499644911104e+02 3.6361915493595734e+02 -5.8143756434977604e+01 -5.2026926251512370e+04 6.1402714274517930e+04 7.6942469637475035e+04 -4.7711825994898390e+01 -1.1943139415020509e+05 6.9722764097775216e+03 -6.7353625951566428e+03 6.7724894718397991e+01 1.7078857105548377e+02 1.8774625214235878e+05 7.5351907773998872e+04 -1.6910562157083064e+05 8.5160469844456117e+01 -6.0899138301266812e+03 1.9744290793572905e+04 -1.1982267034214462e+03 -1.7291588587515551e+02 1.0539521195757015e+02 2.3735848856060860e+04 -4.1822349861874554e+03 -2.4612557010140612e+04 -2.8913835789194485e+02 -4.1123732066000142e+04 -4.4313776466181534e+03 1.8850700753854126e+03 1.3505698646967721e+02 -1.0671145660751063e+02 -1.9012580621365694e+04 2.5703750038648999e+04 2.1283228927891825e+04 3.3562743431039053e+01 -8.1897368121861200e+03 1.2258294844715507e+04 -7.0542380214184152e+02 -6.2109537631886099e+01 7.3134479296258576e+01 1.2090796793572066e+04 -1.8972631539768331e+03 -1.2158531960963239e+04 4.5980770835081057e+02 1.6141242970412700e+03 2.4530098063772857e+03 2.1523025858165929e+03 -3.2446693642367172e+03 -1.2930141467272033e+03 -2.1576812963158736e+03 -3.5329084657421718e+03 -3.9369882506054419e+03 -7.4994717058274764e+03 
      </Row>
      <Row Index="16">
        5.3818872826486768e+01 -1.1439738827734394e+04 4.2727565342685989e+02 1.1065100460791861e+02 2.6404883417632300e+02 -2.3243223051649937e+02 -1.8001871315530436e+04 9.6978494409562154e+03 2.5742289498957962e+04 -2.7581189435593842e+01 -4.6614186928193769e+04 -3.7972357236104712e+04 -2.4153351967601357e+03 -1.9546054295099111e+01 3.4777109253263006e+01 7.5351908528589891e+04 3.7781547881014812e+04 -6.9925383791724933e+04 2.9205946723855050e+01 -3.1264809486924582e+03 5.9281201661281575e+03 -2.1698237431648911e+02 -5.4613401989400614e+01 -1.4360124597753838e+00 9.3664987321516473e+03 -3.5191788371667208e+03 -1.1304813253412440e+04 -1.0836177893113083e+02 -2.8541621500626105e+04 -9.7524618066569637e+03 -2.2381186331431491e+02 -7.9929881777825699e+01 1.0596976949613190e+02 -7.1755064342556889e+03 3.4196721950518287e+04 1.7116933976768567e+04 1.6671137908518176e+01 -3.9525126047471949e+03 8.0135645676561544e+03 -2.6822378447115966e+02 -3.5963405050377034e+01 2.7731262177843366e+01 4.1235017603569413e+03 2.6006488334471339e+02 -4.1115386499093293e+03 2.9758451430307230e+02 -5.6985640053841844e+03 -3.5332284348510984e+03 1.1181772185015958e+04 -2.5991516621388037e+03 -3.0356066520224936e+03 8.9631422351146321e+03 1.8136054592410501e+03 8.9833765876262623e+03 2.1822111680745147e+03 
      </Row>
      <Row Index="17">
        -1.4862725395138114e+02 4.1791068475061671e+04 7.6981539050136707e+03 -5.2302030074450568e+02 -2.8326438245455211e+02 7.4292099590658836e+01 4.2302850778229869e+04 -3.8895325408016783e+04 -5.9918046215761184e+04 3.6811193215195090e+01 1.2933022003852110e+05 -1.5489767665514373e+04 5.6472285767223220e+03 -8.8335492642192548e+01 -1.1911633761784378e+02 -1.6910562268891500e+05 -6.9925383535166751e+04 1.5769701823341803e+05 -6.7078861124013201e+01 1.9145354343939398e+03 -1.6787386041134545e+04 8.0319932966619911e+02 1.5556462648395700e+02 -7.9345379847613458e+01 -2.0543044944589397e+04 8.4011188369063148e+03 2.3469458598455025e+04 2.2852916918024312e+02 5.4663060510027681e+04 1.4734217434059563e+04 -1.1561678632796793e+03 -1.4192236029284868e+02 7.8348370990882358e+01 2.6498808012681671e+04 -4.9941690908231976e+04 -3.7960267188497455e+04 -2.9691752095668562e+01 1.2431171981745912e+04 -1.1793141754841839e+04 5.7558838585379158e+02 5.2710176266538411e+01 -6.0352074930763870e+01 -1.1183445280003772e+04 2.2192899007121578e+03 1.2077832248265138e+04 -4.0505748658149378e+02 1.7335951299467938e+03 -8.9120088574397016e+02 -7.6201639052549144e+03 2.5167939935498725e+03 1.2123494988519453e+03 -4.1846742671677785e+03 5.5674538675302183e+03 -6.1432426209264177e+03 1.3007546350796569e+04 
      </Row>
      <Row Index="18">
        1.9524859770365346e+00 -5.4331351669741018e+01 2.5603078663731715e+01 8.6139523672883223e-01 1.4594971322610704e+00 6.2782375607525331e-01 -6.8812659678406263e+00 3.9185673843048633e+01 1.9009819925364262e+01 -3.5086846364784918e-01 -1.6087573415395184e+01 -9.8080281437844405e+00 -4.5742008789904709e+00 5.3896670043577011e-01 1.4471526887434436e+00 8.5160469228934346e+01 2.9205946211730048e+01 -6.7078860225978360e+01 1.9020910965745976e+00 -2.2177050467640964e+01 4.1554007590113486e+01 -2.8361602098014198e+00 1.9402680598573152e-01 9.7246235475443799e-01 -1.4792375069906043e+01 9.2468240881980890e+00 2.6422946531276452e+01 -4.3423402644651743e+00 -3.1258153507440444e+01 4.4883068421202495e+01 3.6347640742435505e+00 -1.0372537393630252e+00 -6.0203458389432640e-01 2.1615196351615012e+01 -2.2552237271184342e+01 -4.4415594284848616e+01 2.3978365666609314e-01 -3.0192340259097861e+01 1.1245946580190861e+01 -6.1112989205582491e-01 8.0168109031511087e-02 2.2693534083692854e-01 1.2403662125031818e+01 -1.6381634879957387e+00 -1.3590311549328700e+01 8.1939983507998448e+00 8.6280277293552565e+00 6.7536623099340174e+00 -2.5823203285418685e+00 1.0239847784748548e+01 8.2604319657442193e+00 -1.1906946500157574e+01 1.5131736503767986e+01 -1.1601122923155048e+01 -4.0694287458018955e+01 
      </Row>
      <Row Index="19">
        -1.0833788124677358e+02 6.0675122442028296e+04 3.7812643111243982e+04 -5.3449947099906385e+03 -5.0198251784088825e+01 2.1968934948774222e+02 1.3762856566048717e+04 3.9107229872502794e+03 2.4806316006039640e+04 -3.6311682182602453e+01 -4.2472159862195840e+03 7.1111664208694783e+03 1.1261008323731626e+03 -1.0649480915466484e+01 1.1582432500091613e+01 -6.0899136752803643e+03 -3.1264809906741866e+03 1.9145353252053083e+03 -2.2177050802011308e+01 2.7288666273833637e+05 -3.9579679587624443e+05 -1.0317229521397574e+03 -8.8944008581875778e+01 4.1529201849186165e+01 -3.8630370161313636e+04 -6.8006808270478359e+03 6.2560353745339256e+04 8.0722848723800780e+01 -6.1618548882045492e+04 -3.0692002529787453e+04 1.2302730053499539e+04 1.3738555973843177e+02 -5.0124446345604838e+01 -3.8365430272690181e+04 -2.8659761333845586e+02 -5.4601415210119285e+03 -5.6122360217839287e+00 -2.2541938428536523e+03 9.0145500527560898e+02 -5.1821538789820893e+00 -6.2923749160676206e+00 -5.6859309039666641e+00 -1.7575703602949259e+03 -2.0894446395577797e+03 8.1700431707161033e+02 5.1878529076783889e+02 1.5863920744710038e+03 1.2653921433905830e+03 -8.1299944920692942e+03 7.5764515415132337e+01 4.1986892214430882e+03 -6.5070765322020743e+03 5.1474644729950578e+03 -6.1614462765361732e+03 -5.9200845324341080e+03 
      </Row>
      <Row Index="20">
        1.5903950376252942e+02 3.3525169029647783e+04 1.2173526151363680e+04 -2.9983706947993683e+03 -1.7502483105939973e+01 2.6866380662417578e+02 8.5402411756985512e+03 -2.0798142128267355e+03 6.2115341840338187e+03 8.0913648308924166e+00 -8.9440454654547648e+03 1.6074775659094448e+03 -1.2448745308908783e+03 4.2281743190334055e+01 2.9306160890781257e+01 1.9744290389001158e+04 5.9281197979664285e+03 -1.6787385053417718e+04 4.1554008926254028e+01 -3.9579679646306788e+05 6.9531627999051299e+05 -5.1815467848508888e+02 3.4018870625006912e+01 -8.2908764043458859e+01 6.7770948686983975e+04 -3.3666122876421723e+03 -8.8965784819016480e+04 -1.5831073713061051e+02 -2.3493390158885093e+04 -3.6251721383585362e+04 3.3516530202267240e+03 2.8047350335797091e+01 -8.5038850098374041e+01 -8.9307523000421861e+02 1.2565701085011868e+04 -6.7667995364517737e+03 5.0858104824483235e+00 2.1443022765455105e+04 -1.0037168122969528e+04 6.6631342470919662e+01 9.8493011202604919e-01 5.6216721254527329e+00 -5.0781612127743583e+03 9.5499848717608074e+01 6.0594374509219888e+03 -1.6104143235053925e+02 -5.5214422571996647e+02 -7.7149772482768640e+02 -1.3283151113460539e+04 4.6385667720560014e+02 2.5721339003373414e+03 -2.8513881825275603e+03 1.7113257606500388e+03 -2.8429395043885252e+03 2.4238716177700950e+04 
      </Row>
      <Row Index="21">
        1.4169388706970949e+00 -6.1382120964874384e+03 -3.8266181154617998e+03 9.4916204302728977e+02 -3.1299054027501825e+00 -2.8438797772027698e+01 -1.5423568608145165e+03 -2.5900036400626309e+03 -4.7054948150923483e+03 1.8239903790608878e+00 -2.6399769548911991e+01 -1.4130131125872758e+03 2.1047359720878717e+01 3.1828635758120072e+00 -5.1349903811808417e+00 -1.1982265074860243e+03 -2.1698227684397796e+02 8.0319910001031440e+02 -2.8361601954593425e+00 -1.0317228772854323e+03 -5.1815469773783184e+02 6.5096378433584687e+02 -4.7206116476622242e+00 -1.8460359022009044e+01 -5.2581677556233162e+03 -2.1800126434759900e+03 2.3287153741628381e+03 1.5829291776344689e+00 2.2557673715382152e+03 1.1145137895704120e+03 -2.1806850821696689e+03 2.1064341776304900e+00 2.1737111671698187e+01 7.6392070514983479e+03 4.8649542237668566e+03 4.0840287478707705e+02 -2.1820054527665889e-01 -1.6523299651904640e+03 3.9394256975622898e+02 1.6274982089009370e+01 7.1061021753304310e-01 -9.0224331392084878e-01 6.0755900492521960e+02 -2.0459412109145511e+01 -7.0372874267006398e+02 -2.6904516300294745e+01 8.2030715020806770e+02 3.7610012173092741e+02 4.3662253785182547e+03 7.4835752779014911e+01 -5.0742801162154416e+02 -1.7347370411919692e+03 1.6068706914174879e+03 -1.7849699311953905e+03 -2.3838281026436625e+03 
      </Row>
      <Row Index="22">
        8.1082582657197122e-01 5.7470294613101821e+01 7.9836849202603410e+00 -3.1391604467066685e+01 2.6914130270391325e+00 -1.6298376964513270e+00 1.4822168379367403e+02 2.0743918472675674e+02 6.0572382817323032e+01 -2.8452320608923287e-01 2.3757017322522080e+02 -2.0405559950758663e+02 2.1608634760135530e+01 3.0684963225489632e+00 1.2661922548681428e+00 -1.7291589776763385e+02 -5.4613407488236433e+01 1.5556463812228284e+02 1.9402680155101848e-01 -8.8944008354365423e+01 3.4018862760577115e+01 -4.7206114204019141e+00 3.0556959791235023e+00 -1.7889902599685925e-01 4.6902195664556764e+01 9.5505215835719525e+01 3.5215341526807138e+00 -1.8735114138157130e+00 6.7919411112394258e+01 4.1305941351488912e+01 2.3797045158063597e+01 -7.1606551213070837e+00 1.5063802132425756e+00 3.6037512448293072e+01 -2.2645597789710092e+02 -2.0900628705175592e+02 3.9707800437597029e-02 -1.7455372202105934e+02 5.1956127970373103e+01 1.4437534133640000e+00 8.3754054752115914e-01 2.7668591710408919e-02 3.3939408994445181e+01 -2.0045402356244253e+00 -4.8538067804722587e+01 7.8640268133108009e+00 -9.6593180595631232e+00 -1.3439890782094636e+01 1.5089799209110424e+01 6.6329043359176978e+01 -1.3180682835087337e+01 -1.5716842763619489e+01 1.4399588232930121e+01 -1.2983703405090694e+01 -2.0717391889471568e+02 
      </Row>
      <Row Index="23">
        6.3414872575823011e-01 -6.8117511837859567e+01 6.2572211890155479e+01 1.7860413884810974e+01 -4.6977685792191082e-01 6.0814698010810080e+00 -2.3926479711486087e+02 -3.6720217764706348e+01 1.8337248918048374e+02 4.6103947544114021e-01 5.6536186506823810e+01 -2.3401155838971931e+01 -9.7609568068172141e+00 9.1169348162227948e-01 1.0433468335708875e+00 1.0539521605295658e+02 -1.4360111315672057e+00 -7.9345382950306515e+01 9.7246235486577604e-01 4.1529206085155302e+01 -8.2908765119292241e+01 -1.8460359589779259e+01 -1.7889903349751002e-01 2.6849612103682827e+00 1.5600520066399645e+02 4.7096644534386982e+01 -9.6939862645369928e+01 -1.2390690695883251e+00 -9.5438469519240385e+00 5.3116453110033206e+01 1.8024890903267838e+01 1.3538812350987932e+00 -6.1865228382068249e+00 -1.5057953995832881e+02 -6.6544910029179306e+01 8.9735278661526877e+01 9.3575582421507875e-02 2.1967276846210133e+01 -2.7358240426893829e+01 -1.8004700202361725e+00 1.0315568576368968e-01 3.1896912241774000e-01 1.7753939741196564e+01 -4.4505458332276522e+00 -1.3396233470891387e+01 -1.7518803993667120e+00 9.4336475221074263e+00 6.1115862980838376e+00 -3.4650982160511944e+01 1.6388607456851418e+01 6.8576144811157448e+01 -1.5810576063087012e+01 2.1683684542100149e+01 -1.5904092112776151e+01 -1.3880955379672635e+01 
      </Row>
      <Row Index="24">
        3.3991100963942699e+01 2.2671127598330819e+04 1.8615944815390456e+04 -5.0856857387185109e+03 6.2135315152572730e+01 1.0034522775322330e+01 3.6083655231921875e+04 1.7554588752569271e+04 4.0605315247329563e+03 -1.1974526476162282e+01 -1.2926887852389389e+04 3.4174507057580922e+03 -9.7394457875279045e+02 -1.7946061654639834e+01 4.8856979495363476e+01 2.3735848272955423e+04 9.3664983180185773e+03 -2.0543043938226128e+04 -1.4792374789448331e+01 -3.8630371489994766e+04 6.7770950058762493e+04 -5.2581677769041544e+03 4.6902197967423945e+01 1.5600519682503693e+02 7.2773527329128876e+04 1.9580373734866414e+04 -5.2059046806064485e+04 -9.9250415022395373e+00 -1.5590412745476133e+04 1.1601179000020493e+04 1.3368261820498275e+04 -4.8758801065517218e+01 -8.5385825651360165e+01 -9.7025866236631322e+04 -2.6842123094947230e+04 4.4988014455918979e+04 2.4686027192192341e+00 1.1197477091155151e+04 -1.8510485433677422e+03 -1.2979678776882884e+02 -1.0785455104228515e+01 8.9435241369567393e+00 -2.4556442915178504e+03 1.2732439745173508e+02 3.2458877148630581e+03 1.0636621235942584e+02 -1.2890138836711412e+03 7.8540978718102338e+01 2.5995242585173008e+04 -8.8683292841778166e+02 1.2520631115897147e+03 7.6832137218235757e+03 -5.1827938414060845e+03 7.4550364268741605e+03 1.5857282615251417e+04 
      </Row>
      <Row Index="25">
        -4.5565183621620235e+00 -3.9311356620407860e+03 -1.6150306730152224e+03 -4.0667297803759780e+03 8.0524955414379292e+01 -7.1601081994447213e+01 1.3240477333975894e+04 4.0217988406719713e+04 1.7513889756740471e+04 -8.3212604630207352e+00 1.7072160449607058e+04 7.5601211260610871e+03 6.8216792043538408e+02 5.5403806163382342e+01 1.6475226911255731e+01 -4.1822375397303622e+03 -3.5191798832322456e+03 8.4011213153879726e+03 9.2468234622747332e+00 -6.8006816001517400e+03 -3.3666127070861394e+03 -2.1800125421246685e+03 9.5505215044114266e+01 4.7096641476984132e+01 1.9580372845186273e+04 1.9401539685994841e+04 -6.1738022643129425e+03 -1.4908019044996990e+01 2.4460737003981798e+04 1.3419259828603434e+04 7.3770592622175009e+03 -2.2681741209001325e+02 4.7518033037444638e+01 -2.2221241375728794e+04 -6.0670990117560301e+04 -1.8013261791175464e+04 9.7919204072604771e-01 7.6207099524818641e+03 -1.6908046469620786e+03 1.2092631512403500e+02 1.6091395338947649e+01 -1.7775198791812272e+00 -3.7700277386233229e+03 4.0569050413439834e+02 4.2627090160648077e+03 1.3972587267757626e+02 5.2408736572273338e+03 2.9245557400823282e+03 -8.5219574783541029e+03 1.4228388256903345e+03 5.5325760493322150e+01 -1.1365731275511775e+04 8.6437161161461681e+03 -1.1101179601134399e+04 1.0479472587975382e+04 
      </Row>
      <Row Index="26">
        -5.5654551594635450e+01 1.2612208109334118e+04 2.8602021104623782e+03 -1.4191854269679397e+03 -2.4574644514788815e+01 1.3260065094021752e+02 -1.4485371514460283e+04 1.1817932072314077e+04 3.2984375306084781e+04 -1.0982909789550831e+01 2.2342110398007317e+04 6.9113812046501407e+03 1.7465024621964922e+03 5.9312729774288528e+01 -2.0276476129627326e+01 -2.4612558561051235e+04 -1.1304813864353082e+04 2.3469459905122578e+04 2.6422946048948688e+01 6.2560354548670992e+04 -8.8965786605916655e+04 2.3287154426214183e+03 3.5215335956117997e+00 -9.6939863373274534e+01 -5.2059047370203945e+04 -6.1738025554788874e+03 5.2605199113315888e+04 -5.0803749993292513e-02 1.5526097055858154e+04 -1.4903070598023478e+04 8.6719071386581527e+02 -6.2098272695056949e+01 5.6680179195853270e+01 5.3095913419543715e+04 -1.5266606214753911e+04 -6.8083229836455866e+04 -2.8035854187310179e+00 -6.2201675949649052e+02 -1.3679308306266394e+03 1.9976124588909056e+02 1.9145067118717055e+01 -1.0788072140263239e+01 -3.0783199799686463e+03 -7.7518857030631625e+02 2.4716734111786682e+03 2.2836147106660064e+02 -1.2977802991668791e+03 -1.0836604377621854e+03 -1.4285581700046023e+03 1.9713593677400459e+03 2.0093964208449124e+03 5.4355747386603762e+03 -1.9756742851348438e+03 5.0204924953013015e+03 -2.8772217957043049e+03 
      </Row>
      <Row Index="27">
        -1.0150858095190330e+01 2.4378689660519655e+02 -1.7282447209450072e+02 9.7558659780034418e-02 -7.5691559858084076e+00 -1.0581384328344186e+00 1.0058704051302765e+02 -2.0336453320208784e+02 -1.9581004609928630e+02 3.8687914748381900e+00 8.7715709509570360e+01 -2.3836179451418047e+01 1.1381515171617849e+01 -2.1519422808107436e+00 -7.0034884239565898e+00 -2.8913835635488527e+02 -1.0836177634979590e+02 2.2852916537430212e+02 -4.3423402631197234e+00 8.0722843863407093e+01 -1.5831072887420646e+02 1.5829297967942750e+00 -1.8735114325508704e+00 -1.2390690842800822e+00 -9.9250439278194555e+00 -1.4908024802270859e+01 -5.0806076374328768e-02 2.0933262113434360e+01 1.5900330149874412e+02 -2.3671738428701551e+02 -1.1889032071577503e+01 6.8805447892659695e+00 -1.8338154594284859e+00 -5.7015692459948312e+01 1.1393273570908300e+02 1.5630856820402488e+02 -1.2141295619547776e+00 2.6680931380926432e+02 -9.6569180740624859e+01 3.4360605419568913e+00 -4.0436959359701929e-01 -1.0014721785945611e+00 -9.4127170603278330e+01 4.3347778716825722e+00 1.0643869882502408e+02 -6.4356361928185549e+01 -4.9190314054015694e+01 -4.0349064470622196e+01 -1.0484719967130331e+01 -4.5436020154238577e+01 -6.1103437977402280e+00 5.9957774406728674e+01 -7.2755977966527581e+01 5.8675254534454432e+01 3.2616886467537842e+02 
      </Row>
      <Row Index="28">
        -8.9112151901927064e+01 -2.5461243445510988e+05 -1.3848377795269230e+05 9.8501218863629056e+03 9.7374702506622270e+00 -9.6598351423875329e+01 -2.7322403990858867e+04 8.8651130895248993e+04 5.8000190123694410e+03 5.1214515439205570e+00 6.9079329479326960e+04 6.8249336393964273e+04 6.4414785774957090e+02 -2.3261421924052229e+01 -3.0214590531498970e+01 -4.1123738937888906e+04 -2.8541624192667638e+04 5.4663066277495825e+04 -3.1258155595257449e+01 -6.1618548629522440e+04 -2.3493392789586600e+04 2.2557676885938026e+03 6.7919399640031770e+01 -9.5438513280221287e+00 -1.5590415615390113e+04 2.4460735413596773e+04 1.5526097680001776e+04 1.5900331724419812e+02 5.6809496428818232e+05 -2.4243347125265305e+05 -1.4024223689025357e+04 -1.7086442175582545e+02 5.7877271699357607e+01 8.2764098426400597e+02 -1.5120002815502961e+05 5.3172814637512711e+03 -6.8247400175123403e+00 3.6387214988990327e+03 -1.2409838774883247e+03 1.6592497472785590e+02 2.1909174282725189e+01 -4.5061908229497476e+00 -4.2132684047140747e+03 2.8238397738431304e+03 5.5931816785542760e+03 -2.3642052969400720e+02 -5.3221408383817172e+04 -2.9555044801620199e+04 8.9351619700231269e+04 9.9538003040711192e+02 -1.2182608106089726e+03 9.0056609824201791e+04 -7.8213677200600054e+04 8.9891859382022434e+04 1.0127499731814227e+04 
      </Row>
      <Row Index="29">
        1.7699391496448516e+02 -1.4507736607017333e+05 -1.0739354636900293e+05 4.8210183470435377e+03 3.7444640791843995e+01 2.2249376500971721e+02 3.3025907673578149e+04 4.4606147593948226e+04 -5.4325465239102181e+04 -1.5786171710657072e+01 3.5296753458034364e+04 2.1593988640094147e+04 -1.4953860927453206e+03 3.3612745862155862e+01 4.0625442552201548e+01 -4.4313775555403190e+03 -9.7524610837874716e+03 1.4734217012242530e+04 4.4883067960337939e+01 -3.0692004673527146e+04 -3.6251722111247327e+04 1.1145141290317024e+03 4.1305933162038855e+01 5.3116458597116889e+01 1.1601176259356587e+04 1.3419257385955672e+04 -1.4903071074850883e+04 -2.3671738545683002e+02 -2.4243347319085646e+05 8.3336824253643269e+05 -8.6394184354516328e+03 -8.9890572407175796e+01 -1.7303364634656145e+02 2.6496918339285749e+04 -7.4995245811644898e+04 -4.3502612111475988e+04 8.2414612520897208e+00 2.6949716792933075e+04 -1.1101495416691359e+04 9.4180683161245724e+01 1.8370251975870367e+01 9.5179582189666689e+00 -5.3752837783012992e+03 2.8846951925099056e+03 8.0980365922589699e+03 1.7809856513200248e+02 -3.5926202454801525e+04 -2.1532087261644891e+04 4.7596084769772919e+04 1.0574653696872119e+03 1.9298544925209408e+03 5.5550903449836478e+04 -4.9927776632541842e+04 5.5462100319235113e+04 3.5502997625920761e+04 
      </Row>
      <Row Index="30">
        -7.1352319172328862e+00 3.7172255257911202e+04 2.1739670676408794e+04 -7.0598843384773936e+03 3.8688107142904300e+01 1.3599672187977421e+02 2.6295411551021956e+04 2.2924925556827424e+04 2.1254521487935981e+04 -1.8083138279387640e+01 2.2032109244790481e+03 6.9742353103262139e+03 5.5801055754978779e+02 2.6836182430409735e+01 2.1501226068731967e+01 1.8850686134500284e+03 -2.2381260849884711e+02 -1.1561662032771146e+03 3.6347640060921549e+00 1.2302729343777501e+04 3.3516531811261161e+03 -2.1806850594139109e+03 2.3797047375387137e+01 1.8024887357871421e+01 1.3368261578204447e+04 7.3770598516413011e+03 8.6719105395118731e+02 -1.1889029230223287e+01 -1.4024221934825910e+04 -8.6394155283405071e+03 1.3085362296248279e+04 -7.2946398416520083e+01 -2.3244677566042810e+01 -4.2208865973729786e+04 -2.8284981035552657e+04 -9.9194787585615486e+03 6.4364868079019288e-01 6.9423445298181578e+03 -1.1056142154558238e+03 -9.4143794462602273e+00 6.0293584546908541e+00 2.9042073128516677e-01 -3.8716923487073000e+03 -3.5695476709781803e+02 3.9296213316244143e+03 2.5381144878336016e+02 -5.5448217023558354e+03 -2.7109575437721128e+03 -1.0881256292846781e+04 6.6601933258897043e+02 2.5671969160992867e+03 1.0951619850725183e+04 -1.0214010775033988e+04 1.1307778144174654e+04 1.0496124277829702e+04 
      </Row>
      <Row Index="31">
        -3.2166512839057759e+00 -1.5196134032115580e+02 -4.7431790531868273e+01 1.0509326375020559e+02 -1.5076063783069230e+01 8.5590776492311349e+00 -5.0002856038599441e+02 -6.4581701106004016e+02 -1.5416551848990548e+02 1.7956687014020645e+00 -3.4553106583486107e+02 6.0155641742893840e+02 -4.8982507595143488e+01 -5.6453531814100870e+00 -3.6273493293918122e+00 1.3505702383706057e+02 -7.9929863711305188e+01 -1.4192239810300026e+02 -1.0372537267319899e+00 1.3738556268042800e+02 2.8047370729144120e+01 2.1064335054412417e+00 -7.1606551490377939e+00 1.3538812221702656e+00 -4.8758793662896622e+01 -2.2681741703523301e+02 -6.2098275684913972e+01 6.8805447438336387e+00 -1.7086446279538569e+02 -8.9890597939459667e+01 -7.2946392291208625e+01 2.5047817636690276e+01 -8.6109142245618813e+00 -5.9405980536315326e+01 6.2384398928899486e+02 5.4515387268647100e+02 -1.9600345254195872e-01 6.2760191122729111e+02 -2.5681775425803778e+02 3.6874638001762605e-02 -1.9191652195160773e+00 -1.2538827529857599e-01 -1.5500692450371585e+02 -4.8840268653720202e+01 1.8455500931587210e+02 -2.9877743130775336e+01 3.1432928459505707e+01 3.7735901570470617e+01 -1.7826460705509817e+00 -1.1499373267813826e+02 7.9091090490593160e+01 2.7733165682543088e+01 -2.5102152690343509e+01 2.0693780558726299e+01 5.6201096092012858e+02 
      </Row>
      <Row Index="32">
        1.9288409905041703e-01 2.6703567595943616e+02 -1.2725369077244267e+02 -5.4495757740009623e+01 5.8975435832897887e+00 -2.4497988917017402e+01 6.3329212054555489e+02 2.3740112437836433e+02 -3.2950046115053311e+02 -2.9572384984390681e+00 -2.1733253121275754e+02 2.3511141708133891e+01 2.3919729923719295e+01 -2.0941989995679933e+00 -4.4002532734737443e-01 -1.0671147706610839e+02 1.0596976159896747e+02 7.8348389366066442e+01 -6.0203458727299619e-01 -5.0124457002516209e+01 -8.5038852693712201e+01 2.1737113264174852e+01 1.5063802389163854e+00 -6.1865228504372141e+00 -8.5385838645661067e+01 4.7518027316066451e+01 5.6680181052366819e+01 -1.8338154715537058e+00 5.7877278503489379e+01 -1.7303363097865619e+02 -2.3244687027352629e+01 -8.6109142647628918e+00 2.4016203386703502e+01 3.4254249575595730e+02 3.5636405868063790e+01 -3.2882661977190344e+02 -1.5142867201323185e-01 -1.4424171295573646e+02 1.5145111510181059e+02 6.7939247297387304e+00 -1.6078973185798570e-01 -9.2120570176451366e-01 -4.6195132830720524e+01 7.9717822592275738e+00 2.2684093902050961e+01 2.6702835706610927e+01 -3.1521301041405533e+01 -2.0460264982662601e+01 1.1648949689531901e+02 -3.9185211991783490e+01 -2.3726374591307459e+02 5.0172090178398889e+01 -6.5231960460564608e+01 5.1740948182207994e+01 -1.5299204659150121e+01 
      </Row>
      <Row Index="33">
        1.9830476169121221e+02 -4.3295613516145531e+04 1.5834501616833077e+04 1.7196128954721418e+04 -1.2678244933305791e+01 -9.7846387090436997e+02 -2.2139620197471589e+05 -6.5103650914974700e+04 1.1953452917260304e+05 1.0477106937253075e+02 2.4072378853859147e+04 1.0552896741998953e+04 -3.0761799562434339e+02 -1.7714575094868565e+01 -1.1755137658761385e+01 -1.9012581500784028e+04 -7.1755061512306811e+03 2.6498807790920651e+04 2.1615195497965715e+01 -3.8365423276878129e+04 -8.9308483394148288e+02 7.6392072080858206e+03 3.6037509764910737e+01 -1.5057952945624524e+02 -9.7025869289812399e+04 -2.2221244203240043e+04 5.3095914890076281e+04 -5.7015697179173628e+01 8.2763776436613989e+02 2.6496904087483126e+04 -4.2208867055860967e+04 -5.9405966588378362e+01 3.4254245962951484e+02 4.2859740560839995e+05 8.6148925517316457e+04 -2.8212164663442358e+05 -3.8038883698720838e-01 -2.2053260921030724e+03 -3.4016818682152225e+03 2.1645846473832398e+02 1.4491275084744109e+01 5.9081365593721102e-01 5.6329480936442440e+02 2.6438817709855266e+03 -1.6262271347287242e+02 -1.4862608702613884e+03 7.2272583367153857e+03 4.5379383853941972e+03 -2.8209634417896741e+04 1.1142702416454722e+02 -1.6777959158277470e+04 -3.1109893115755229e+04 1.4637791302800841e+04 -2.9747331027257776e+04 -1.1712877016913262e+03 
      </Row>
      <Row Index="34">
        -5.1450225051386951e+01 9.2497730213988092e+04 5.4428975317505072e+04 1.6439364396928220e+04 -1.9900533623260344e+02 -3.8669429275054517e+02 -6.1822447401427402e+04 -2.2522942453558958e+05 -5.5809479845095186e+04 7.2486637314810650e+01 -9.1910770423101087e+04 -9.6335075136442261e+04 -2.2626129894133228e+03 -2.3533592024962491e+02 -1.1005624984202768e+02 2.5703762756890472e+04 3.4196727114884474e+04 -4.9941702992416467e+04 -2.2552233800775866e+01 -2.8659344895508002e+02 1.2565702755244298e+04 4.8649537005109632e+03 -2.2645597158455894e+02 -6.6544896698958837e+01 -2.6842118996219826e+04 -6.0670989669488081e+04 -1.5266606765149631e+04 1.1393270737737566e+02 -1.5120003348807752e+05 -7.4995258753791539e+04 -2.8284977790354515e+04 6.2384395733585052e+02 3.5636383736648895e+01 8.6148913049231967e+04 3.2257064432736608e+05 8.4624274465229857e+04 1.1090844551654300e-01 -3.1874858708810272e+04 6.3673211261307879e+03 -4.0753624339593807e+02 -7.5686029835256406e+01 2.2053287566932340e+00 1.3240204402897481e+04 -1.2158815777140117e+03 -1.6057480481021881e+04 -9.1770563654409852e+02 -3.9520870682293113e+04 -2.2709618940245637e+04 9.0483586976764142e+04 -6.9503172391546541e+03 -7.5100547151648716e+03 8.0671968810545513e+04 -6.0546459233677822e+04 7.9723765808416996e+04 -3.8697406387701660e+04 
      </Row>
      <Row Index="35">
        -2.1326315617723594e+02 -7.1438840072674473e+04 -8.8827009037096519e+04 9.8496999946440937e+03 -1.7780240903722006e+02 4.3432172136695408e+02 1.1418117348649085e+05 -6.8867064046364540e+04 -2.4283890309360519e+05 -1.4839735024987021e+01 -6.1436667012920298e+04 -6.5652342256425763e+04 -2.7868642621466042e+03 -1.9918432086571556e+02 -1.1301040951052255e+02 2.1283238761119428e+04 1.7116938012580096e+04 -3.7960276593790812e+04 -4.4415592491168354e+01 -5.4601460754117306e+03 -6.7667880967786659e+03 4.0840249853453633e+02 -2.0900629274318089e+02 8.9735283671117031e+01 4.4988020008823747e+04 -1.8013261139198883e+04 -6.8083233382521750e+04 1.5630855674629402e+02 5.3172760973377299e+03 -4.3502611154958722e+04 -9.9194768856647115e+03 5.4515387782504422e+02 -3.2882662147172414e+02 -2.8212165432938788e+05 8.4624275084508787e+04 3.8903881479089707e+05 8.8644520565139828e-03 -2.3968336740738527e+04 6.9702095509541978e+03 -3.7699383595339168e+02 -6.4964679521468284e+01 3.8265361086532721e+00 1.4378185269898535e+04 -3.0597079522797321e+02 -1.5263804458047969e+04 2.5756091824994655e+02 -5.5397970739042103e+03 -6.4984942667350924e+03 -5.0035101436404395e+04 -5.6775871349033987e+03 5.6952519534021058e+03 -2.2886667838426307e+04 4.4952782421238971e+03 -2.1471036241287646e+04 -3.2721769897954800e+04 
      </Row>
      <Row Index="36">
        5.5210490365189102e-01 -2.3502675315778713e+01 -6.6664845096769199e-01 4.7446470440998922e-02 3.8320970051041847e-01 7.3842027071055583e-02 -1.6485139363604532e+01 1.6354022303859320e+01 2.0635334780751556e+01 -1.4881354809251590e-01 -1.5626353809163025e+01 -2.0406526887424377e+01 -1.2470874256007756e+00 3.9564466952461963e-02 2.9268409255438854e-01 3.3562743644397301e+01 1.6671137813239639e+01 -2.9691752056616654e+01 2.3978365678160607e-01 -5.6122357010946375e+00 5.0858101509998068e+00 -2.1820060442598610e-01 3.9707802522228164e-02 9.3575582661832302e-02 2.4686029500570239e+00 9.7919261937098412e-01 -2.8035851046737958e+00 -1.2141295625379418e+00 -6.8247384508905053e+00 8.2414608607140387e+00 6.4364905682743778e-01 -1.9600345915047457e-01 -1.5142867039760155e-01 -3.8038931839498180e-01 1.1090553146997983e-01 8.8628322329165066e-03 1.2999578044516014e-01 -1.8458012577881455e+01 -8.6628875793619287e-01 -4.6831823685087537e-01 -1.6366173831216246e-02 1.0273410680030270e-01 5.5113347261405528e+00 1.3735504248528896e+00 -5.6905770999175216e+00 3.0513286904249917e+00 1.1261542755463521e+00 4.9823465629618591e-01 1.7227772702307220e+00 4.7270003057519716e-02 -1.1519336095088715e+00 -3.5535270562289281e+00 4.9029708550447335e+00 -3.4816708084731705e+00 -2.4188397236997019e+01 
      </Row>
      <Row Index="37">
        -1.1563940924024791e+02 -8.7168089107390606e+03 1.6611350120396412e+04 -3.6745794063852372e+03 -3.7316385764903680e+02 6.4617852565588692e+01 5.6063759142541994e+03 1.6876820852037505e+04 1.1157812034839415e+04 6.1467708875366952e+01 1.6975312396403198e+04 -7.5620477062836289e+03 -1.3157801139978837e+03 -1.6331913599488325e+02 -8.5265044197542011e+01 -8.1897368841484295e+03 -3.9525120171101298e+03 1.2431171829815896e+04 -3.0192337711501750e+01 -2.2541973333530768e+03 2.1443026008762499e+04 -1.6523295508989941e+03 -1.7455372441455984e+02 2.1967260982230073e+01 1.1197473609103195e+04 7.6207081737122207e+03 -6.2201568640959158e+02 2.6680931205849993e+02 3.6387183580987803e+03 2.6949720227460661e+04 6.9423427706970760e+03 6.2760190653484642e+02 -1.4424167857495195e+02 -2.2053126512216240e+03 -3.1874850698955910e+04 -2.3968343075339111e+04 -1.8458012463248451e+01 2.2222625403095543e+05 -2.5380058857712089e+05 1.0204287923590309e+03 -8.5939158765066452e+01 3.2674516393490194e+00 -5.9057786540206755e+04 -2.3350133498237192e+03 6.8374757234823614e+04 -1.0517920690701867e+03 5.0117603444107317e+03 3.2405390837062441e+03 -4.1317451775362715e+03 -3.3623241221124190e+03 1.4776726864874945e-01 -8.8601988537275174e+03 8.1077446961811611e+03 -8.5647426374621191e+03 1.1217241925900556e+05 
      </Row>
      <Row Index="38">
        3.4711141960651730e+01 2.1536300782027429e+03 -7.6108330816176021e+03 4.6542185700302798e+02 1.9558542990806018e+02 -9.8605060083033095e+01 -1.1691659110303990e+03 3.7980912963569353e+03 3.1958505645592231e+03 -2.6854486560740042e+01 -1.0502927311204716e+04 -6.5099183798573213e+03 8.4164748598555889e+01 4.0371165742541052e+01 4.2597516928097320e+01 1.2258285083463252e+04 8.0135602420140640e+03 -1.1793132739582230e+04 1.1245939591266506e+01 9.0145784777171866e+02 -1.0037174328782578e+04 3.9394255861945203e+02 5.1956129869235156e+01 -2.7358234474413621e+01 -1.8510481050437302e+03 -1.6908041191959637e+03 -1.3679312499671723e+03 -9.6569158993204837e+01 -1.2409774545716518e+03 -1.1101495177202960e+04 -1.1056144446084400e+03 -2.5681773261059971e+02 1.5145108919400263e+02 -3.4016919048668233e+03 6.3673166882534297e+03 6.9702208052033293e+03 -8.6629114759853110e-01 -2.5380058809320955e+05 7.8754856378778594e+05 -4.0843108422151818e+02 3.8344397387539857e+01 -1.6018704798716499e+01 2.7206417164977211e+04 4.8411429051822197e+03 -3.3618610082774845e+04 4.8710031238242664e+02 -2.1731831083954598e+03 -1.6327404792463690e+03 8.4319158810004592e+02 5.2120037216573837e+02 -4.1473894367298817e+02 2.2263139817327265e+03 -1.5953224191596814e+03 2.2180588952093008e+03 2.9267402769596566e+05 
      </Row>
      <Row Index="39">
        -2.3554120310627695e+00 -1.5163660970291363e+02 -1.5008653759688423e+02 -1.2078548129960609e-01 -6.6080544533381271e+00 -2.6437287929041986e+00 9.2344340617937860e+01 3.5594394963214381e+02 2.7289165223809960e+01 6.9550709148506940e-01 4.2672591783186931e+02 -1.9484281717576960e+02 5.4557203464265399e+01 5.1059354701023949e+00 -2.0952957891422841e+00 -7.0542382776018746e+02 -2.6822378949792801e+02 5.7558840480917206e+02 -6.1112989027992626e-01 -5.1821740250112498e+00 6.6631351812857019e+01 1.6274985960712755e+01 1.4437533478126738e+00 -1.8004701334886875e+00 -1.2979681650122393e+02 1.2092629574030707e+02 1.9976124965649876e+02 3.4360605954790344e+00 1.6592494656330916e+02 9.4180727219678261e+01 -9.4143974496898863e+00 3.6874795215496192e-02 6.7939248975756072e+00 2.1645853727786678e+02 -4.0753616361874504e+02 -3.7699382650174789e+02 -4.6831824227342622e-01 1.0204288023772053e+03 -4.0843111306563878e+02 3.7387570002108760e+01 4.1565430999956821e-01 -1.5697930343138751e+00 -6.0647591357844919e+02 -1.2981519683883801e+02 5.6776178721134920e+02 -7.4370726304957770e+00 2.6823593939873131e+01 4.9282689564858764e+00 -2.3027713419047359e+02 1.1999177907564990e+02 4.0426321245364193e+01 -9.1190120496349891e+01 7.3013228086671916e+01 -8.8542602032214873e+01 9.5053653008989590e+02 
      </Row>
      <Row Index="40">
        2.1190803530154767e-01 -1.6222894327263649e+01 -4.2695004256366076e+00 -1.0149027707434122e+01 2.9052833539489598e-01 1.7311803796151004e-01 5.4472766506292565e+01 8.4800893030798903e+01 9.1951911466884297e+00 3.4157147831052725e-02 9.0162329666105478e+01 -4.0679740381454735e+01 7.3838214696072111e+00 1.5003861195780495e+00 4.3190235671728239e-01 -6.2109541381274781e+01 -3.5963406939058899e+01 5.2710179972913444e+01 8.0168107239032338e-02 -6.2923745999467542e+00 9.8492748093175209e-01 7.1061022081423397e-01 8.3754054740687778e-01 1.0315569078475395e-01 -1.0785455115769572e+01 1.6091395917443165e+01 1.9145066884143233e+01 -4.0436958756978747e-01 2.1909177874261424e+01 1.8370255269270515e+01 6.0293580082925793e+00 -1.9191652087491318e+00 -1.6078974604553409e-01 1.4491273309801908e+01 -7.5686033416648058e+01 -6.4964676020331723e+01 -1.6366174526442734e-02 -8.5939157613612039e+01 3.8344395712690726e+01 4.1565433142049812e-01 4.0268033557261224e-01 -5.7628678569141556e-03 1.9027438481215789e+01 -4.1538816252566768e+00 -2.6476187240999977e+01 1.1615460990250952e+00 1.9992374607299483e+00 -8.0208703279571303e-01 -2.6645334157190064e+00 3.2663606390965924e+01 3.3390485044078462e+00 -1.3006985135907975e+01 6.8086073931091571e+00 -1.2277579101531069e+01 -9.9388296536635210e+01 
      </Row>
      <Row Index="41">
        5.3697714481508996e-01 -3.7269033727283301e+01 -7.7967820913612371e+00 -1.0659526234641703e-01 5.4814657366421216e-01 5.5440363333409692e-01 -3.1513920672333789e+01 2.4110311134387135e+01 3.5379792886385431e+01 -7.2289721769379867e-02 -8.9308223261157380e+00 -4.3562882239058752e+01 -3.8466322536748567e+00 1.3493103750799307e-01 4.9615305932307674e-01 7.3134479482510955e+01 2.7731261946835076e+01 -6.0352074675490719e+01 2.2693534104732294e-01 -5.6859306215377536e+00 5.6216717564105334e+00 -9.0224340905351497e-01 2.7668596086407149e-02 3.1896912277048006e-01 8.9435244950825243e+00 -1.7775188616469535e+00 -1.0788071626388021e+01 -1.0014721793884931e+00 -4.5061876867396116e+00 9.5179569151263568e+00 2.9042129630584768e-01 -1.2538828818772352e-01 -9.2120569776792571e-01 5.9081350396093857e-01 2.2053238492064473e+00 3.8265329468794196e+00 1.0273410679495498e-01 3.2674515497515664e+00 -1.6018701704058628e+01 -1.5697930253083054e+00 -5.7628664819851932e-03 1.9809136794307936e-01 1.5296460935253521e+01 4.5980706232999182e+00 -1.1158403668039639e+01 2.1476656116712824e+00 5.9967499759810017e-01 -6.0176205226587731e-01 3.2162747086407535e+00 9.4691130556223868e-01 8.6169172822513129e-01 -5.7914825806873580e+00 8.3682253943790599e+00 -5.6572059861424489e+00 -2.8388637786462851e+00 
      </Row>
      <Row Index="42">
        5.4305464286866481e+01 -5.3340396229191092e+03 -5.4062058346061385e+03 1.9346391351161947e+03 1.4174713186574081e+02 4.2588305403132836e+00 -4.0257938538181797e+03 -6.8244655967238432e+03 -7.9579784272728430e+03 -2.0161451052437769e+01 -7.7350994776051339e+03 2.9918587806163123e+03 -3.3073279637442101e+02 2.1461664134552848e+01 5.0519401125147851e+01 1.2090797896173499e+04 4.1235019880162436e+03 -1.1183446197943267e+04 1.2403661795826338e+01 -1.7575693290218187e+03 -5.0781617706659272e+03 6.0755883231368443e+02 3.3939410032591695e+01 1.7753945869907511e+01 -2.4556428649972804e+03 -3.7700270463880152e+03 -3.0783204145425334e+03 -9.4127172289467126e+01 -4.2132676509012927e+03 -5.3752854834341524e+03 -3.8716916130850295e+03 -1.5500692533222718e+02 -4.6195144247969438e+01 5.6329056580781446e+02 1.3240201612761564e+04 1.4378186486091214e+04 5.5113349415878474e+00 -5.9057786646104723e+04 2.7206417223856319e+04 -6.0647591352900963e+02 1.9027438832362208e+01 1.5296461269306747e+01 2.3875450120742429e+04 9.4157644341998093e+02 -2.5580041561554841e+04 3.0415582417654878e+02 -4.6159967707125770e+02 -2.6140002761361075e+02 -2.0753355656445492e+03 2.5480016686869203e+02 -6.8856615489474279e+02 1.1805167323637252e+03 -1.0076864701629945e+03 1.1274564873962820e+03 -6.6399548077638756e+04 
      </Row>
      <Row Index="43">
        9.5996807198071110e-01 1.9247873866195300e+02 1.3913503789133774e+03 -2.6340803718392863e+01 7.3326139315418231e+01 -4.3321158536579333e+01 7.3785704960493240e+02 -2.9750475750136325e+03 -3.5598581949417899e+03 -2.6212765679783843e+00 -3.2586973620799108e+02 1.7776630906880382e+02 -1.1440386959237628e+02 -6.0711975439092043e+01 -6.5492825487032746e+00 -1.8972632908382657e+03 2.6006486104876421e+02 2.2192899884344538e+03 -1.6381635707709847e+00 -2.0894446389482187e+03 9.5499765271903357e+01 -2.0459398771491180e+01 -2.0045404163812464e+00 -4.4505456580534997e+00 1.2732429074992751e+02 4.0569038805032005e+02 -7.7518857990176389e+02 4.3347779943386513e+00 2.8238396486383226e+03 2.8846950082721637e+03 -3.5695486278130409e+02 -4.8840267673388851e+01 7.9717814165187519e+00 2.6438820465402455e+03 -1.2158809990975828e+03 -3.0597059028965327e+02 1.3735504147058464e+00 -2.3350136210654896e+03 4.8411430095536889e+03 -1.2981519850234400e+02 -4.1538816484780394e+00 4.5980705992847106e+00 9.4157654288751303e+02 1.8617762869068149e+03 -3.5995983632042652e+02 -2.6881069904278775e+01 7.7515569632557538e+02 4.8992748803810230e+02 -1.8539208554580546e+03 -1.2583003981024012e+03 -9.0965710337463338e+02 -1.0694684472914632e+03 1.3653866573089917e+03 -1.1003906271985720e+03 4.9259481059280761e+03 
      </Row>
      <Row Index="44">
        -5.5162457874983374e+01 3.7084551912190836e+03 6.3580186624432390e+03 -2.0387857994334809e+03 -1.3680231575523794e+02 -6.3816700368988677e+00 4.4286542836650242e+03 7.0419627463963843e+03 6.9224949646905370e+03 2.3857863186902250e+01 8.8591158768920286e+03 -2.6356721720125061e+03 1.0135983017956096e+02 -5.7608113771337230e+01 -5.3867695404280312e+01 -1.2158533165656772e+04 -4.1115388817438507e+03 1.2077833237240629e+04 -1.3590311170082714e+01 8.1700312617264717e+02 6.0594381056902239e+03 -7.0372854697132061e+02 -4.8538069026259109e+01 -1.3396240176222818e+01 3.2458861034883776e+03 4.2627082062626723e+03 2.4716738753323880e+03 1.0643870061180860e+02 5.5931807741686498e+03 8.0980383749843768e+03 3.9296204752715312e+03 1.8455501048913447e+02 2.2684106410271852e+01 -1.6261778916738172e+02 -1.6057477132869883e+04 -1.5263805825276102e+04 -5.6905773263533774e+00 6.8374757283551400e+04 -3.3618610244586220e+04 5.6776178627113404e+02 -2.6476187663602445e+01 -1.1158404020574380e+01 -2.5580041524795135e+04 -3.5995972463235375e+02 2.8208789778907256e+04 -3.8668352501643676e+02 1.2043878164732948e+03 7.4172009781959332e+02 4.8639931431878358e+02 -1.0138750243608374e+03 3.3296532650312838e+02 -1.9528136363947833e+03 1.8968130786672664e+03 -1.7304753964782037e+03 7.5110890539725195e+04 
      </Row>
      <Row Index="45">
        3.6475124267417414e+00 2.4544936791333726e+01 3.2524634077663495e+02 1.7756227888623954e+01 2.9687010816987481e+01 -2.5673915947542554e+00 -1.3642442536254071e+03 9.1366094201016108e+02 2.3391373261929084e+03 -2.9230392051592389e+01 -1.9095720684421678e+02 -1.5787187530574374e+02 3.0276797230953889e+01 4.7238717330735085e+00 2.3808185087771278e+01 4.5980770889702023e+02 2.9758450047035285e+02 -4.0505746934718570e+02 8.1939983428115966e+00 5.1878532441928564e+02 -1.6104146256424826e+02 -2.6904522420036237e+01 7.8640268589609263e+00 -1.7518803683040858e+00 1.0636625474299109e+02 1.3972592518154806e+02 2.2836147827743082e+02 -6.4356361808599928e+01 -2.3642042948917043e+02 1.7809859362308140e+02 2.5381148450941026e+02 -2.9877743273028202e+01 2.6702835778281298e+01 -1.4862610029057923e+03 -9.1770589572058930e+02 2.5756087298889429e+02 3.0513286807284317e+00 -1.0517919388530809e+03 4.8710030335980923e+02 -7.4370715487445125e+00 1.1615460950705012e+00 2.1476656023478142e+00 3.0415577212439024e+02 -2.6881070077786831e+01 -3.8668346663126414e+02 4.2844852524968576e+02 -2.6439910494332892e+00 7.6793507638249778e+00 3.6234644681268037e+02 1.1452580652236338e+02 8.0481456623088235e+01 8.8087496726901122e+00 2.0935143534840009e+01 1.6835245895916422e+01 -1.1015424889802957e+03 
      </Row>
      <Row Index="46">
        3.7160510711371671e+01 -1.6612308683841293e+04 -1.5257610506026682e+04 3.2540425811594573e+03 -2.4587881109076875e+01 1.1809969381454863e+01 1.7753950573903426e+03 2.5056191676121121e+04 -1.6220082756032079e+04 -9.1513313394625584e-01 -4.6653019987629632e+03 -6.9155876495067605e+03 -6.5166599726720938e+02 -9.5911226757676786e+00 6.5871189294796295e-01 1.6141229604987980e+03 -5.6985643892574935e+03 1.7335962472971025e+03 8.6280272078050757e+00 1.5863917903590600e+03 -5.5214435900860076e+02 8.2030724888167617e+02 -9.6593204093812801e+00 9.4336450825600480e+00 -1.2890147958399123e+03 5.2408731045305522e+03 -1.2977801560261630e+03 -4.9190310133576446e+01 -5.3221410044154822e+04 -3.5926201617276944e+04 -5.5448223129351190e+03 3.1432937312002309e+01 -3.1521296663227275e+01 7.2272620264782408e+03 -3.9520868018666792e+04 -5.5397978137159480e+03 1.1261538904895474e+00 5.0117615217035172e+03 -2.1731843677128895e+03 2.6823602493853969e+01 1.9992364854003770e+00 5.9967444438140660e-01 -4.6160001394390957e+02 7.7515574854209342e+02 1.2043882143522596e+03 -2.6440364672487249e+00 9.9000713609396212e+05 -6.0030183222021060e+03 1.5179782441402436e+04 -1.1657095456152547e+01 -2.9826994489226593e+02 1.6604336344144249e+04 -1.3588104346127669e+04 1.6535593108821657e+04 4.7010433108955767e+03 
      </Row>
      <Row Index="47">
        3.0096123040626480e+01 -1.1000632265841632e+04 -1.0873511290187796e+04 1.5606936002442621e+03 -2.1616261106790091e+01 1.1384892770853909e+01 3.7028941889549974e+03 1.3653307979477084e+04 -1.0469906856547339e+04 -1.6183710477080240e+00 -5.5236671153657953e+03 -8.0846102247041053e+03 -4.7095293314747039e+02 -1.6818036351299668e+01 -3.9007889493919379e-01 2.4530086706382517e+03 -3.5332288851478779e+03 -8.9119981873287315e+02 6.7536619105208615e+00 1.2653919658402056e+03 -7.7149785902689450e+02 3.7610014541476448e+02 -1.3439891448983872e+01 6.1115859975804341e+00 7.8540692359469915e+01 2.9245556914249291e+03 -1.0836603585588246e+03 -4.0349061878815817e+01 -2.9555044618163200e+04 -2.1532086848800176e+04 -2.7109577525564819e+03 3.7735905443755243e+01 -2.0460264790426862e+01 4.5379396311986047e+03 -2.2709618687689490e+04 -6.4984945931054235e+03 4.9823439122195623e-01 3.2405398448543292e+03 -1.6327411247507675e+03 4.9282756617498933e+00 -8.0208744077081029e-01 -6.0176247754796464e-01 -2.6140028950275553e+02 4.8992752657218654e+02 7.4172040341858394e+02 7.6793333609987826e+00 -6.0030183200556048e+03 9.9624864991852420e+05 8.2644376615722449e+03 -2.3534293563425399e+02 -1.7298514120869481e+02 9.2772578279929876e+03 -7.6463637358377628e+03 9.2569173653056769e+03 2.9142950936758079e+03 
      </Row>
      <Row Index="48">
        -1.8254030335548123e+01 6.9156390738774935e+03 3.7841226157413403e+03 1.8112200614664929e+04 -4.6014563094613550e+00 -4.2733468161165320e+01 7.0360471767077892e+04 -5.3556892116775751e+04 4.5587940924180504e+04 -2.8676836987930074e+01 -1.2685452373389920e+04 -6.8280400280485192e+03 4.3940482625887398e+01 2.5823692082762818e+01 2.1528280672436267e+01 2.1523029785651943e+03 1.1181771822054976e+04 -7.6201636099796724e+03 -2.5823181937125810e+00 -8.1299925174754189e+03 -1.3283154670709800e+04 4.3662254516307139e+03 1.5089808030219046e+01 -3.4650985722985411e+01 2.5995240280185539e+04 -8.5219568933298397e+03 -1.4285554066454697e+03 -1.0484729882141892e+01 8.9351622151279997e+04 4.7596085760851456e+04 -1.0881256132057621e+04 -1.7826753108607249e+00 1.1648950546578862e+02 -2.8209628383912575e+04 9.0483582048110271e+04 -5.0035110497486421e+04 1.7227776239456034e+00 -4.1317491062671043e+03 8.4319690657019873e+02 -2.3027714812135378e+02 -2.6645292352776764e+00 3.2162752766470248e+00 -2.0753345525104437e+03 -1.8539208484697008e+03 4.8639817141609694e+02 3.6234648229729873e+02 1.5179783182352412e+04 8.2644382235056491e+03 9.5975895056983433e+05 3.0438467912167107e+02 3.6395420758011142e+02 -3.2882104459432652e+04 2.3894538040510201e+04 -3.2082322918794660e+04 -3.5044174267834369e+03 
      </Row>
      <Row Index="49">
        2.1614120668398186e+01 -3.2696177031215325e+03 -1.4297890557278620e+03 -8.2568056604256390e+02 -2.8095692023536571e+01 4.8821881380929469e+01 3.3666017885611609e+03 1.0118078652016977e+04 3.5953574350186800e+03 4.7381469725512488e+00 7.9648969130710275e+03 -5.2822551068418688e+03 6.3898170201622725e+02 1.6294331205043471e+02 4.0771597688103924e+01 -3.2446696935595091e+03 -2.5991518383543148e+03 2.5167943392536322e+03 1.0239847675383203e+01 7.5764491763590854e+01 4.6385650951618504e+02 7.4835754160858585e+01 6.6329043426584064e+01 1.6388607505233217e+01 -8.8683294611834833e+02 1.4228389124004098e+03 1.9713593804129323e+03 -4.5436019554096788e+01 9.9538043244738765e+02 1.0574657995709736e+03 6.6601930823872317e+02 -1.1499373225902133e+02 -3.9185212192587329e+01 1.1142695621001621e+02 -6.9503177653993898e+03 -5.6775870322536502e+03 4.7269930492291223e-02 -3.3623238730110174e+03 5.2120021364839340e+02 1.1999178199326360e+02 3.2663606395569538e+01 9.4691117357643861e-01 2.5480007873147943e+02 -1.2583003903694400e+03 -1.0138749210615611e+03 1.1452580396176793e+02 -1.1656987214596835e+01 -2.3534288507250994e+02 3.0438434988346489e+02 3.4733961416749448e+03 7.5730740934711071e+02 -1.1435137513219959e+03 6.7879856659530674e+02 -1.0613080199135827e+03 -7.0948997819693959e+03 
      </Row>
      <Row Index="50">
        5.7397039785828383e+00 1.2502183691567886e+03 4.4737210354114386e+03 1.1640362948105701e+03 -5.8609392009264866e+01 4.7341482938333741e+02 -1.2484049981910572e+04 -1.4480136719772397e+03 1.3607095481673059e+04 -1.3162270100724527e+00 7.0128021899748946e+03 -1.1662128252589500e+03 1.9739339709603883e+01 3.5996327994029002e+01 1.1577494447189736e+01 -1.2930139046417826e+03 -3.0356065921100035e+03 1.2123493289364378e+03 8.2604319920512808e+00 4.1986894680994437e+03 2.5721338867747190e+03 -5.0742804973086737e+02 -1.3180683496635993e+01 6.8576144519016850e+01 1.2520634357461709e+03 5.5326002015723589e+01 2.0093964005190460e+03 -6.1103426910489702e+00 -1.2182608109846667e+03 1.9298547621890548e+03 2.5671971712328582e+03 7.9091091526811653e+01 -2.3726374462323454e+02 -1.6777960250044351e+04 -7.5100558720008421e+03 5.6952519442258999e+03 -1.1519336593463549e+00 1.4909841500457333e-01 -4.1473966594678450e+02 4.0426329492889636e+01 3.3390480945506402e+00 8.6169170003381623e-01 -6.8856661551997865e+02 -9.0965711153543907e+02 3.3296584271347353e+02 8.0481451970145486e+01 -2.9826967781220640e+02 -1.7298509751832526e+02 3.6395429134159349e+02 7.5730740111612249e+02 6.8372125797020835e+03 4.1120801041273819e+02 -1.4822067541888583e+02 4.5695161068802395e+02 -2.1652519372976462e+03 
      </Row>
      <Row Index="51">
        -4.4505020139709359e+01 3.6430699957418224e+03 8.8200342461521923e+03 -6.6145033899595874e+03 1.3668297863781390e+01 -1.1118016404823265e+01 2.1419888426255726e+04 -5.7241341557511805e+04 4.2941972804102668e+04 -6.4010928197603789e-02 -1.1025978060736965e+04 -6.8787890913872179e+03 8.1573642740406910e+02 -4.0978424621154090e+01 -8.3238504625545602e+00 -2.1576808576694575e+03 8.9631420086355356e+03 -4.1846743276464531e+03 -1.1906945825814546e+01 -6.5070739191619259e+03 -2.8513900090741026e+03 -1.7347372417001377e+03 -1.5716838211864001e+01 -1.5810574341832535e+01 7.6832145368745423e+03 -1.1365730052409421e+04 5.4355758551527579e+03 5.9957771465632504e+01 9.0056610816260581e+04 5.5550902766562169e+04 1.0951621388221323e+04 2.7733151010032771e+01 5.0172085563306382e+01 -3.1109898494005003e+04 8.0671962259002772e+04 -2.2886669980726161e+04 -3.5535269788854293e+00 -8.8601983735653266e+03 2.2263136525355812e+03 -9.1190117284501980e+01 -1.3006983305159396e+01 -5.7914823506895345e+00 1.1805164949156588e+03 -1.0694685658306530e+03 -1.9528133971341949e+03 8.8088128478555063e+00 1.6604337060017628e+04 9.2772581654789774e+03 -3.2882103625373566e+04 -1.1435135226096972e+03 4.1120848843068279e+02 9.6669031183300994e+05 2.5691017722767887e+04 -3.2842373007563809e+04 -8.2657819695809612e+03 
      </Row>
      <Row Index="52">
        5.1708521068341270e+01 -1.3367252615264435e+04 -1.4485548519833214e+04 6.0189443847263874e+03 1.0497548712596881e+01 3.0355242229693602e+01 -3.6717183535154318e+03 3.1785643643960593e+04 -2.8744663545173928e+04 -1.3828666817953490e+00 1.8144711175795215e+04 1.1611951538872421e+04 -6.3714704014302151e+02 3.4767351960774704e+01 1.4720266604302253e+01 -3.5329108458172536e+03 1.8136047356945928e+03 5.5674557420308520e+03 1.5131735505980487e+01 5.1474631664949175e+03 1.7113262228950884e+03 1.6068708404185156e+03 1.4399585230042362e+01 2.1683682262174727e+01 -5.1827945434994072e+03 8.6437152680138552e+03 -1.9756748898496303e+03 -7.2755972616829865e+01 -7.8213678834039616e+04 -4.9927774396696143e+04 -1.0214011831352180e+04 -2.5102139674961734e+01 -6.5231956471285741e+01 1.4637794363601635e+04 -6.0546454820970954e+04 4.4952802787942555e+03 4.9029703049079671e+00 8.1077448044261264e+03 -1.5953227883744776e+03 7.3013231945833354e+01 6.8086061845981103e+00 8.3682243365491900e+00 -1.0076864685503153e+03 1.3653867570554255e+03 1.8968131039940797e+03 2.0935083968820891e+01 -1.3588104525550782e+04 -7.6463639548317451e+03 2.3894537918768918e+04 6.7879838832888709e+02 -1.4822099910358708e+02 2.5691017530253885e+04 9.7876926092379331e+05 2.5468838354732590e+04 7.7278872980640626e+03 
      </Row>
      <Row Index="53">
        -4.3605480247387277e+01 4.5239613461340350e+03 9.3051641656073461e+03 -6.8054732861832072e+03 1.6425478155676956e+01 -9.8715598320885647e+00 1.6749776200807912e+04 -5.6249185079502167e+04 3.8570802601568474e+04 -7.4942320530044526e-01 -1.1046611568503766e+04 -6.5179783831145833e+03 8.5723252338210648e+02 -3.7322587791061096e+01 -6.7177584600327691e+00 -3.9369857476863544e+03 8.9833771893083958e+03 -6.1432444028479231e+03 -1.1601121089031039e+01 -6.1614443552771718e+03 -2.8429415421528602e+03 -1.7849700075119665e+03 -1.2983698345764992e+01 -1.5904091147500708e+01 7.4550358789367956e+03 -1.1101178799254652e+04 5.0204941236243885e+03 5.8675245289855866e+01 8.9891861202592700e+04 5.5462098671026462e+04 1.1307778916410300e+04 2.0693759236955657e+01 5.1740947068193691e+01 -2.9747330037377098e+04 7.9723760830449377e+04 -2.1471041926977825e+04 -3.4816701248676054e+00 -8.5647444692089030e+03 2.2180604273186473e+03 -8.8542619309608426e+01 -1.2277576813956328e+01 -5.6572045479080089e+00 1.1274571013996874e+03 -1.1003906742936458e+03 -1.7304760790346215e+03 1.6835309042409108e+01 1.6535593786018053e+04 9.2569177984240614e+03 -3.2082322828693366e+04 -1.0613077963168980e+03 4.5695181185229092e+02 -3.2842373547674302e+04 2.5468838966483261e+04 9.6756049578167126e+05 -7.8741682721991483e+03 
      </Row>
      <Row Index="54">
        -1.5477205950106145e+02 -2.1347244762894079e+03 2.4924410539449193e+04 -6.0916034862773013e+03 -2.0995192269831023e+02 -1.0576202261968501e+02 1.0235264418899009e+04 1.8624106188733480e+04 1.5983457822902186e+04 5.4847708184097428e+01 1.1872915341847853e+04 -1.8990476688617840e+04 -1.7944625013719415e+03 -3.3025557638931059e+02 -1.1230909641907783e+02 -7.4994803134951799e+03 2.1822083565213252e+03 1.3007553920345788e+04 -4.0694289612292778e+01 -5.9200873203489464e+03 2.4238715607291946e+04 -2.3838274594497980e+03 -2.0717392076033138e+02 -1.3880974401516141e+01 1.5857277443927218e+04 1.0479470157699427e+04 -2.8772204130554455e+03 3.2616888031951021e+02 1.0127500277125087e+04 3.5503002696735013e+04 1.0496121292332253e+04 5.6201097221846430e+02 -1.5299175429798197e+01 -1.1712753074839165e+03 -3.8697397197687904e+04 -3.2721769922110900e+04 -2.4188399092439795e+01 1.1217241889423550e+05 2.9267402796201431e+05 9.5053653601573023e+02 -9.9388296674120909e+01 -2.8388662943834788e+00 -6.6399547756245156e+04 4.9259484290934779e+03 7.5110890361283979e+04 -1.1015426749901526e+03 4.7010424924880444e+03 2.9142944209036950e+03 -3.5044158488325775e+03 -7.0949000195076223e+03 -2.1652533247830324e+03 -8.2657821024518817e+03 7.7278872372077785e+03 -7.8741666200125565e+03 4.2798066720471240e+05 
      </Row>
    </InverseHessian>
  </Weights>
</MethodSetup>
